#define INPUT_LAYER_SIZE    64
#define HIDDEN_LAYER_1_SIZE 36
#define HIDDEN_LAYER_2_SIZE 8
#define HIDDEN_LAYER_3_SIZE 36
#define OUTPUT_LAYER_SIZE   64

float input_neuron_values     [INPUT_LAYER_SIZE];
float hidden_neuron_1_values  [HIDDEN_LAYER_1_SIZE];
float hidden_neuron_2_values  [HIDDEN_LAYER_2_SIZE];
float hidden_neuron_3_values  [HIDDEN_LAYER_3_SIZE];
float output_neuron_values    [OUTPUT_LAYER_SIZE];

float hidden_neuron_1_weights[64][36] = {{-1.6530790328979492, 1.2579991817474365, 0.5518783330917358, -3.73160457611084, -1.4517873525619507, 0.7728887796401978, -8.415668487548828, 6.59661865234375, 2.1827235221862793, 1.126969814300537, -5.69767427444458, -4.5702104568481445, 0.27702394127845764, -2.294351577758789, 0.9985619783401489, 1.047365665435791, 1.9700651168823242, 15.596779823303223, 0.06440925598144531, -1.0613813400268555, 2.6818573474884033, -2.96006178855896, 5.996664047241211, 3.7111878395080566, -0.24912187457084656, -5.451839447021484, 2.8541643619537354, -1.5932705402374268, 2.813469886779785, 3.5975687503814697, -2.9452078342437744, 4.055577278137207, 0.5679671168327332, -3.7541825771331787, -4.597663402557373, -0.487056702375412},{2.270491361618042, -0.6671932339668274, -1.3714734315872192, -0.6650423407554626, -1.1977641582489014, -0.34517577290534973, -3.8579859733581543, 4.5070695877075195, -1.1645488739013672, 4.218412399291992, 1.3233616352081299, -0.813744068145752, -1.0909624099731445, 0.8584671020507812, -2.9287827014923096, 1.8421227931976318, 3.572862148284912, 8.021905899047852, -0.22278545796871185, 1.0785961151123047, 4.68794584274292, 5.628567218780518, 2.697866439819336, 8.041821479797363, 2.5281057357788086, -7.143568992614746, -0.11858531832695007, -1.6163023710250854, 1.663989543914795, -1.8406095504760742, -4.1055378913879395, 0.8141962885856628, -0.6609191298484802, -2.3372623920440674, -0.5060349106788635, 0.3126472234725952},{-1.8114376068115234, -1.502449870109558, 4.378500461578369, 3.9150569438934326, 3.2956297397613525, 0.6459735035896301, -3.927464485168457, 1.075811505317688, -3.964437484741211, 2.670016050338745, 5.028830051422119, 1.7026829719543457, -3.6486597061157227, 2.619581699371338, 0.2912830114364624, 1.739308476448059, 2.7058193683624268, 7.4342522621154785, -1.604285478591919, 1.000901222229004, 8.992293357849121, 9.709138870239258, -1.5671019554138184, -0.6789649724960327, 0.6005935668945312, -8.31548023223877, -0.4017861485481262, -5.870866775512695, 3.041837215423584, -2.162031888961792, -5.620165824890137, -0.815976619720459, 2.9659290313720703, 2.5174708366394043, 4.45646858215332, -1.2077009677886963},{-2.9210453033447266, -0.7748126983642578, 6.154195308685303, 6.91809606552124, 7.248373985290527, -0.7352116107940674, -1.614658236503601, -1.842800259590149, -2.7943758964538574, 2.7092437744140625, 5.5958051681518555, -1.099418044090271, -3.6143815517425537, 1.688421607017517, -0.1905168741941452, -0.6178370118141174, -1.819293737411499, 9.39098072052002, -0.47292718291282654, 1.0472382307052612, 3.423776865005493, 13.581562042236328, -5.741204738616943, -3.92812442779541, -1.218774437904358, -5.087817668914795, 5.259655475616455, -3.5702741146087646, 12.423821449279785, 1.6919046640396118, -5.670257091522217, 1.6731263399124146, 1.6188645362854004, -0.10393433272838593, 3.706505298614502, -5.086145877838135},{0.4774017930030823, 0.25507524609565735, 4.714166641235352, 3.530674695968628, 1.2354168891906738, -1.2419898509979248, 0.5112329125404358, -9.035690307617188, -0.11899056285619736, 7.538345813751221, 1.7724157571792603, -0.07790537178516388, -2.4039251804351807, 0.6380048394203186, -1.7192659378051758, -0.34481972455978394, -0.8242799639701843, 7.469423294067383, -2.0731911659240723, 0.5209585428237915, -4.368903636932373, 9.654605865478516, 6.09822940826416, 0.04820089042186737, -1.303166151046753, -5.368345737457275, 0.8380018472671509, -1.8544456958770752, 8.36548900604248, 2.1576590538024902, -6.073212623596191, 1.3949257135391235, 1.5113451480865479, -0.7031940817832947, 0.799379289150238, -6.0015058517456055},{1.010823369026184, -0.554172933101654, 6.3162312507629395, 0.18063674867153168, 0.2732970714569092, 0.662770688533783, -1.751349687576294, 0.07551095634698868, -0.9200959801673889, 6.712884426116943, -0.5417178869247437, 0.8757064938545227, -3.2395589351654053, 0.5733321309089661, -2.294769048690796, -0.35414576530456543, 2.7366063594818115, 5.215634822845459, -6.594034194946289, 1.144412875175476, -5.138821601867676, 8.44282054901123, 3.8461906909942627, -4.974409103393555, 4.040226459503174, -4.694742679595947, -1.3619831800460815, -2.3099942207336426, 5.299240589141846, -3.1622581481933594, -4.982735633850098, -2.233405113220215, 1.043363332748413, -0.6646956205368042, 0.11236214637756348, -4.18100118637085},{-0.4566081166267395, -6.2235236167907715, 4.262178421020508, -1.8631372451782227, 0.4202881455421448, -2.389493465423584, -1.5167372226715088, 4.573180675506592, -6.015536785125732, 0.6540557742118835, 3.635603427886963, 0.5657023787498474, -1.3617336750030518, 1.5177371501922607, -5.203104496002197, -0.9988647103309631, -0.8687403798103333, 4.091288089752197, -8.426007270812988, 3.6531591415405273, 1.1039198637008667, 9.45901107788086, 2.475749969482422, -2.4867165088653564, -2.3014960289001465, -3.44389271736145, -0.39711615443229675, -2.9304301738739014, 8.063270568847656, -4.113921642303467, -4.210323810577393, 0.38590383529663086, -1.9337775707244873, -3.450528860092163, 2.2547383308410645, -3.5860490798950195},{2.681335210800171, -5.269713878631592, 2.045679807662964, -1.1150457859039307, 5.774898529052734, 0.36923590302467346, -1.2817344665527344, 6.235456943511963, -6.114012241363525, 8.930882453918457, -1.6353071928024292, -5.27944278717041, -0.09773371368646622, 0.14312419295310974, -6.941164970397949, -4.4722747802734375, -2.948753833770752, 4.905945301055908, -7.575409412384033, 2.4197494983673096, -4.753625869750977, 9.14074420928955, -5.855265140533447, 0.2303505539894104, -2.8976552486419678, -6.7043561935424805, 5.496453762054443, -0.691060483455658, 14.73215389251709, -8.00228214263916, -6.141904830932617, 1.723920464515686, -4.90246057510376, -6.659230709075928, 2.387333393096924, -9.425697326660156},{-0.09191163629293442, -4.887701034545898, 8.232860565185547, -5.99737024307251, 5.52545690536499, -0.8970794081687927, -2.5860652923583984, 2.003211736679077, -7.05342960357666, -1.2330596446990967, -1.8585573434829712, -2.9676170349121094, -0.6663459539413452, 0.3881166875362396, -4.250163555145264, -0.7777907252311707, -1.3100942373275757, 11.899674415588379, -4.280054092407227, 1.1242382526397705, -5.12446403503418, 5.700459003448486, -3.16914963722229, -1.184643030166626, -4.923624038696289, -3.937352418899536, 3.939467191696167, -4.178994655609131, 17.994970321655273, -12.075238227844238, -0.48044344782829285, 2.5174381732940674, -3.5510494709014893, -1.6448017358779907, 4.186514854431152, -6.322055816650391},{-1.3996139764785767, -1.1308976411819458, 10.486359596252441, -4.192395210266113, 4.486658096313477, -1.2719613313674927, -3.8691208362579346, 8.817194938659668, -2.741663932800293, -8.085552215576172, -1.23854660987854, -2.410060405731201, -3.3911869525909424, -0.4354887306690216, 1.1275683641433716, 1.2617154121398926, -0.03326141834259033, 18.55925750732422, -2.732135057449341, 2.5398409366607666, -1.6694881916046143, 6.865067005157471, -1.8260451555252075, -3.1077451705932617, -1.673316240310669, 1.0043206214904785, 2.4771206378936768, -4.939233303070068, 16.975749969482422, -7.821531295776367, 2.536536931991577, -0.611581563949585, 0.43188872933387756, 2.5825304985046387, 0.891758382320404, -2.3179197311401367},{-6.024218559265137, -2.0650694370269775, 8.118014335632324, -1.1042120456695557, 1.5838485956192017, -3.327241897583008, -1.2070828676223755, 11.58749008178711, -3.596348524093628, -11.791476249694824, -0.1961839497089386, -2.6662731170654297, -0.4561683237552643, 1.9356855154037476, -1.505723476409912, -0.7044890522956848, -0.369081974029541, 15.286341667175293, -1.5411878824234009, -3.4199576377868652, 1.8635685443878174, -1.4087433815002441, -4.387823104858398, 1.162285566329956, -4.376163959503174, 4.408318519592285, -0.5284019112586975, -6.321141719818115, 13.985671997070312, -8.056283950805664, -2.961888074874878, 1.6590200662612915, -0.3951135575771332, 1.4762115478515625, 0.9715836644172668, -0.4981801211833954},{-1.087895154953003, -1.9463459253311157, 6.778676986694336, -0.9921983480453491, 6.530028820037842, 2.0334055423736572, -0.32175397872924805, 12.482278823852539, -5.489217281341553, -8.324019432067871, -4.960700035095215, -8.475043296813965, 1.1693246364593506, -0.5706276297569275, -1.1605355739593506, -8.545600891113281, -2.7055890560150146, 9.788804054260254, 2.1273796558380127, -3.5205981731414795, 2.286098003387451, -7.794966697692871, -10.258172035217285, 6.187772274017334, -0.67387855052948, 4.02673864364624, 5.708488464355469, -2.604200839996338, 17.188270568847656, -5.881774425506592, -6.589827537536621, 3.639758586883545, -2.405540943145752, -2.5533883571624756, 2.6614484786987305, -0.5818288326263428},{2.0433475971221924, -1.948513388633728, 11.686640739440918, 0.424070805311203, 7.091832637786865, -0.057756442576646805, 1.4412175416946411, -1.5238412618637085, -6.714282512664795, 1.6196874380111694, -3.7712655067443848, -10.038786888122559, 0.1900707483291626, -0.421894371509552, -1.6624382734298706, -3.4697694778442383, -1.2115788459777832, 11.744050025939941, -1.7362092733383179, -2.0909619331359863, -2.9358675479888916, -8.903740882873535, -7.009279251098633, 2.8219404220581055, -1.5689494609832764, -2.253340005874634, 9.699209213256836, -0.6258233189582825, 20.639001846313477, -4.702786445617676, -2.3872337341308594, 4.841897964477539, -2.9846184253692627, -1.449360728263855, 3.3977577686309814, 0.48963576555252075},{3.3030307292938232, 0.14689752459526062, 10.563190460205078, -0.9810348749160767, 3.2386841773986816, -3.701359987258911, 0.6712186932563782, 3.0531225204467773, -2.4578402042388916, 0.3946543037891388, 1.1932878494262695, -8.564311981201172, -1.368717074394226, -0.6850973963737488, -6.510193824768066, 1.4338383674621582, 4.895359516143799, 9.457379341125488, -4.721168041229248, 1.8844976425170898, 0.6712771654129028, -2.9253811836242676, -7.060914039611816, 5.274979114532471, 1.210855484008789, -5.187538146972656, 6.483213901519775, 1.2455536127090454, 13.62614631652832, -6.213484764099121, 1.464432954788208, -0.5250359773635864, -0.36308202147483826, 2.497525691986084, 0.9452229142189026, -0.5136581063270569},{-4.164157390594482, -3.924579620361328, 10.466202735900879, 2.5526816844940186, 2.523094415664673, -7.90834379196167, 0.7216048836708069, 0.9229238033294678, -2.2351505756378174, 1.6753954887390137, 2.4534287452697754, -5.832004070281982, -6.70726203918457, 0.4054773449897766, -9.624489784240723, 1.7415072917938232, 5.944360733032227, 4.973954200744629, -2.7997143268585205, 0.0046004969626665115, 5.320516586303711, -1.1912424564361572, -10.135973930358887, 1.208390712738037, -0.9916553497314453, 0.8070296049118042, 1.4374744892120361, -4.889000415802002, 7.408303260803223, -4.944289684295654, 0.6073391437530518, -6.400757789611816, 2.4259767532348633, 6.039061069488525, 5.888016223907471, -0.9624930620193481},{-3.880201578140259, -8.342520713806152, 7.073083877563477, 7.8473968505859375, 2.180668592453003, -8.488245964050293, -0.7949467301368713, -5.12545108795166, -4.392735481262207, -0.8806813359260559, 5.514770030975342, -5.633848667144775, -10.504738807678223, -0.07093068212270737, -13.273439407348633, -2.7733101844787598, 0.5461707711219788, 2.098161220550537, -5.0709919929504395, 2.868649482727051, 3.751838445663452, 1.312019944190979, -10.649582862854004, -1.6360737085342407, -4.046634674072266, 1.6715028285980225, -0.5399557948112488, -6.539999485015869, 4.766735553741455, 1.56493079662323, -0.27043861150741577, -4.553144931793213, 2.1380789279937744, 4.0005106925964355, -1.7954213619232178, -2.7696125507354736},{-0.28112438321113586, -9.35503101348877, 6.467873573303223, 1.2955266237258911, -3.5581727027893066, -7.638737201690674, 1.3003926277160645, -10.53978157043457, -4.125447750091553, 6.309882640838623, 2.8418800830841064, -4.443020820617676, -6.24975061416626, -0.7316705584526062, -9.909607887268066, -0.11660086363554001, -3.9079058170318604, 3.420778512954712, -4.055603504180908, 2.443152904510498, -1.4206305742263794, 1.440970540046692, -4.3607258796691895, 0.5338181257247925, -5.68915319442749, 1.1847174167633057, -0.48010358214378357, -6.072970390319824, 6.861656188964844, -2.8105411529541016, 2.607722282409668, -0.13628169894218445, 1.1712844371795654, 2.547232151031494, -2.609806776046753, -1.4502601623535156},{9.40493106842041, -11.430900573730469, 5.56091833114624, -2.8985612392425537, -5.243966579437256, -11.211271286010742, 1.6213276386260986, 0.7343837022781372, -5.987725734710693, 9.600289344787598, 0.6503042578697205, -6.790006637573242, -10.097773551940918, 4.227537155151367, -12.570371627807617, 1.5209697484970093, -1.2380143404006958, 6.087960720062256, -7.002437114715576, 6.989646911621094, -3.9455034732818604, -1.0633870363235474, -9.120306015014648, 2.261392593383789, -2.6334221363067627, 1.0247617959976196, 0.011957420967519283, -5.507253646850586, 7.913897514343262, 0.1681763380765915, 1.5006732940673828, -2.66772723197937, -2.620012044906616, -1.3149064779281616, 0.3189413845539093, -6.283078193664551},{1.1549524068832397, -8.369562149047852, 4.401917934417725, -6.659397125244141, -1.9411946535110474, -10.146376609802246, 5.151646614074707, -3.4252078533172607, -7.370598793029785, 5.662011623382568, 0.8556330800056458, -6.450621128082275, -11.76251220703125, 2.8570330142974854, -11.909505844116211, -2.007262945175171, -1.6409962177276611, 6.374057769775391, -8.923084259033203, 6.21024227142334, -2.1923766136169434, -2.0551390647888184, -8.612687110900879, 0.1367568075656891, -0.9953294396400452, -1.1616417169570923, 4.928819179534912, -4.240782737731934, 7.987858295440674, 0.7885950207710266, -2.5504255294799805, -3.1848995685577393, -7.194167137145996, -3.4342589378356934, -0.343898206949234, -10.033647537231445},{0.49428704380989075, -4.031092166900635, 1.9432616233825684, -0.6408304572105408, 6.516552925109863, -11.900398254394531, 1.7931959629058838, 0.45721644163131714, -6.761159896850586, 1.91324782371521, -1.4433848857879639, -8.747314453125, -10.024957656860352, -1.7257846593856812, -8.187573432922363, -10.1481294631958, -9.569494247436523, 5.952725887298584, -7.96091890335083, 5.909468173980713, -4.466920852661133, -1.631455659866333, -5.797038555145264, 0.5006259083747864, 1.0096065998077393, -9.181715965270996, 9.26844596862793, -3.523838520050049, 9.259159088134766, 3.5124664306640625, -7.888391971588135, -3.2569448947906494, -7.433563232421875, -7.734254360198975, -1.4424619674682617, -13.14471435546875},{-0.466929167509079, -1.7062616348266602, 3.7491421699523926, -2.8822484016418457, 2.636561632156372, -12.380576133728027, -1.5532987117767334, 3.115216016769409, -6.17218542098999, -1.3474153280258179, -2.9519383907318115, -9.068589210510254, -12.451364517211914, -2.755931854248047, -4.025301933288574, -10.026713371276855, -11.354719161987305, 4.944684982299805, -6.497260570526123, 2.4790472984313965, -3.8393542766571045, 0.4972902238368988, -1.0684958696365356, -0.6780871748924255, -0.7513989806175232, -5.733667850494385, 8.491606712341309, -6.211377143859863, 12.499149322509766, -0.5396429300308228, -4.9298224449157715, -2.516563653945923, -9.440624237060547, -9.334136009216309, -0.5467979311943054, -12.354098320007324},{1.213308572769165, 4.978804588317871, 11.51468563079834, 0.034793831408023834, 3.8165228366851807, -13.25013542175293, -8.886913299560547, 3.7064030170440674, -5.4368720054626465, -2.974247455596924, -0.6681459546089172, -9.479960441589355, -16.5209903717041, -1.1597447395324707, 4.781310081481934, -5.0781049728393555, -7.608576774597168, 8.03125, -8.484151840209961, 3.7553634643554688, 1.8892326354980469, 1.8967312574386597, -0.9696083068847656, 0.19687621295452118, -5.192973613739014, 2.684014320373535, 7.803421974182129, -11.050873756408691, 18.023855209350586, 0.5780184268951416, -2.299210548400879, -7.305957794189453, -8.26169490814209, -6.135305881500244, 4.857957363128662, -10.703267097473145},{2.733123302459717, 3.334942102432251, 11.316572189331055, 1.4070817232131958, 6.387514114379883, -13.7692289352417, 0.3427973687648773, -2.4784657955169678, -7.2114176750183105, -0.13510741293430328, -0.5434752106666565, -11.080537796020508, -16.05583381652832, 1.9845619201660156, 6.546115398406982, -7.642850399017334, -8.55727767944336, 3.754634380340576, -4.486876010894775, 3.151188373565674, 1.9205479621887207, 1.4496684074401855, 0.990882158279419, -6.21790885925293, -7.679078102111816, -3.240450859069824, 14.312338829040527, -9.595135688781738, 22.94701385498047, 1.4864168167114258, -5.286118984222412, -9.101426124572754, -8.559599876403809, -7.6327290534973145, 4.44272518157959, -7.786531448364258},{3.81874680519104, 0.5833349227905273, 11.205065727233887, -1.0939381122589111, 6.493973731994629, -14.033339500427246, -4.100169658660889, -1.8825875520706177, -6.584545135498047, -0.6944506764411926, -1.915535569190979, -10.359793663024902, -11.946320533752441, -1.4415096044540405, 2.8128793239593506, -7.240582466125488, -5.5140252113342285, 4.969569206237793, -2.8468592166900635, 3.715390205383301, -0.0880504623055458, 0.5650487542152405, -0.806242823600769, -4.170343399047852, -4.931061744689941, -0.16773097217082977, 13.30501651763916, -6.027395248413086, 25.093812942504883, 1.6863230466842651, 2.0678489208221436, -9.853769302368164, -7.946643352508545, -5.687227725982666, 4.587021827697754, -10.08483600616455},{3.6300928592681885, -7.1825103759765625, 11.853008270263672, -1.6248208284378052, -3.9424238204956055, -13.932621955871582, -1.8223230838775635, 0.8235535025596619, -10.630681037902832, 3.6661536693573, 0.8330487012863159, -5.083673477172852, -13.345246315002441, 1.508080244064331, -4.825900077819824, -3.3867361545562744, -4.722054481506348, 5.540416717529297, -1.3240684270858765, 5.15608549118042, -1.6055997610092163, 0.16801171004772186, 0.9090844988822937, -2.990276336669922, -9.840917587280273, 0.516366183757782, 4.904079914093018, -7.984179496765137, 24.578060150146484, -0.03833310678601265, 4.180804252624512, -11.119154930114746, -8.035383224487305, -4.361418724060059, 9.480976104736328, -11.41897201538086},{5.248159885406494, -7.732306480407715, 12.467082977294922, -0.2614918351173401, -4.154627799987793, -8.685505867004395, -1.7980231046676636, 0.5453957319259644, -10.950777053833008, 0.0984497219324112, 0.7202968597412109, -1.860227346420288, -8.837736129760742, -2.409743070602417, -6.294212818145752, -2.170513153076172, -3.6835625171661377, 2.7990024089813232, 1.3269171714782715, 1.1041160821914673, 0.4216919243335724, 1.5865594148635864, 1.3019293546676636, -1.8317806720733643, -9.915403366088867, 1.1117273569107056, 3.517627000808716, -11.827953338623047, 21.954036712646484, -0.6219767332077026, 1.0107141733169556, -3.802354097366333, -9.363202095031738, -3.536172389984131, 9.746625900268555, -6.640536785125732},{-0.3489246666431427, -12.803630828857422, 6.010918140411377, -0.3160845637321472, -2.8652305603027344, -3.4144222736358643, 0.011697971262037754, -2.1150097846984863, -12.676857948303223, -0.33135583996772766, -0.07645908743143082, 0.12287929654121399, -3.7481071949005127, -2.9917101860046387, -6.0670390129089355, -10.229511260986328, -9.057673454284668, -7.453883647918701, 4.122283935546875, -0.6402698755264282, 1.3386911153793335, -1.1844934225082397, 3.3115975856781006, -0.6188838481903076, -9.504544258117676, -3.6612207889556885, 3.51741099357605, -13.07490348815918, 19.752355575561523, -0.05956422910094261, -9.310778617858887, -1.7284772396087646, -8.094987869262695, -5.523987293243408, 10.557645797729492, -7.457974910736084},{-2.158475875854492, -11.848786354064941, 8.280350685119629, 2.6452484130859375, -0.33737507462501526, -4.232894420623779, -3.533482551574707, -1.4632511138916016, -10.180076599121094, -2.1466543674468994, 0.32480600476264954, -0.6563359498977661, -8.043889999389648, -0.0473785325884819, -12.474910736083984, -6.663404941558838, -6.900300979614258, -3.5490105152130127, 2.792184829711914, 1.2306867837905884, 1.2294237613677979, -0.1495068371295929, -0.30416059494018555, 0.20529350638389587, -7.934248924255371, -2.270329713821411, -0.7444248795509338, -12.909948348999023, 17.752479553222656, 0.8000123500823975, -10.643559455871582, -6.437835693359375, -7.029455661773682, -3.1796367168426514, 12.768701553344727, -8.541056632995605},{1.0198044776916504, -7.879924297332764, 12.106063842773438, 2.2881457805633545, -5.798104286193848, -0.201010599732399, 0.3226441740989685, -3.0404367446899414, -2.5066018104553223, 1.2741217613220215, 0.9308358430862427, -2.4346518516540527, -10.536201477050781, 13.015398025512695, -15.423916816711426, 1.7131952047348022, -2.3316681385040283, 0.9524058103561401, -4.108059406280518, 6.199717044830322, -0.721952497959137, -0.6280568242073059, -0.7240666151046753, 2.9100916385650635, -4.027213096618652, -0.08140712976455688, -5.145407676696777, -10.453813552856445, 18.85735511779785, -0.14343644678592682, -4.749788284301758, -11.740894317626953, -6.652005195617676, -2.286323308944702, 6.656843662261963, -9.515278816223145},{-0.49314314126968384, -7.92380428314209, 10.643610954284668, -2.513144016265869, 4.423743724822998, 1.863980770111084, -0.8083859086036682, -0.07039692252874374, -4.729112148284912, -0.7455558776855469, 0.5618799924850464, -6.691960334777832, -1.7993354797363281, 10.676228523254395, -8.48790168762207, -0.9611409902572632, -5.982287406921387, -0.48150506615638733, -5.062933921813965, 4.716688632965088, 0.4520987570285797, -1.0449739694595337, 1.8561794757843018, -0.41764137148857117, -6.724828720092773, 1.1356642246246338, 5.2757673263549805, -9.328277587890625, 19.684036254882812, 0.7558752298355103, -1.8150932788848877, -5.617916107177734, -7.560738563537598, -2.6034531593322754, 7.4643988609313965, -10.386031150817871},{-1.1208354234695435, -4.962208271026611, 7.254246234893799, -1.2727376222610474, 5.342271327972412, -1.751139760017395, -0.08024425804615021, 0.6024046540260315, -3.655879259109497, -1.1815481185913086, 0.13892780244350433, -6.481407165527344, 0.54058837890625, 7.218173980712891, -10.572105407714844, -1.8676708936691284, -6.037740230560303, -4.132030010223389, -3.732543468475342, 2.6495656967163086, 0.3489486873149872, -1.183099389076233, 1.9440821409225464, -0.6418980360031128, -4.5547966957092285, -0.8593800663948059, 11.817853927612305, -5.314593315124512, 19.14570426940918, -0.6416371464729309, -2.818650245666504, -0.43782204389572144, -13.512749671936035, -7.742770195007324, 8.31004524230957, -16.09454345703125},{0.6407326459884644, 2.614140272140503, 3.7186081409454346, 0.8228582143783569, 8.699943542480469, 0.6925298571586609, -1.2469650506973267, 0.7334014177322388, 2.3867032527923584, -0.660886824131012, -1.0798367261886597, -14.802471160888672, -2.182248115539551, 4.791280746459961, -13.196672439575195, -0.42973244190216064, -3.6073362827301025, -1.0091676712036133, -4.741579532623291, 7.384091854095459, -0.5492854118347168, -1.1131463050842285, -0.1409333199262619, 1.0197348594665527, 4.73153829574585, -2.313526153564453, 12.061918258666992, -0.8910516500473022, 19.424985885620117, 0.7659831643104553, -4.289064884185791, -5.282084941864014, -11.09070110321045, -6.197051048278809, 10.7330322265625, -13.353226661682129},{3.074894905090332, 2.8529176712036133, -0.5096467137336731, -2.529163122177124, 6.939603328704834, 2.2675564289093018, -3.5616626739501953, 0.26718083024024963, 5.686535358428955, 0.173521026968956, -0.1925876885652542, -16.842823028564453, 0.9330261945724487, 4.807298183441162, -15.936676025390625, 1.1690479516983032, -2.8619182109832764, 1.9957847595214844, -1.2925556898117065, 6.279524803161621, 0.22827933728694916, 0.6026456952095032, -1.7610712051391602, 1.4759995937347412, 5.342751502990723, -0.8785322904586792, 8.19564151763916, 0.6628771424293518, 18.30135726928711, -0.8616511225700378, -4.3419036865234375, -7.7908782958984375, -10.618878364562988, -6.373656272888184, 0.18813243508338928, -9.515735626220703},{0.010371743701398373, -4.442479133605957, -3.609370708465576, -1.689317226409912, 7.7675981521606445, 2.239450216293335, -10.760974884033203, -0.5222777128219604, -3.3006725311279297, -0.37685662508010864, 0.3886886537075043, -9.284904479980469, 3.0991101264953613, 5.485625743865967, -10.385560035705566, -7.84915828704834, -8.773502349853516, -0.2689538300037384, -0.757857620716095, 5.073323726654053, 0.11140598356723785, 0.6363435387611389, -3.2173690795898438, -2.0756418704986572, 2.175018310546875, 1.1449936628341675, 9.833491325378418, -3.615677833557129, 21.908414840698242, 0.31618884205818176, -5.4131879806518555, -6.273009300231934, -10.608182907104492, -9.278433799743652, 0.6761047840118408, -5.376936912536621},{0.5559525489807129, -5.595834732055664, -4.055436134338379, 1.0731688737869263, 4.18322229385376, 2.788200855255127, -7.792117118835449, -0.35123589634895325, -6.137432098388672, -0.9963914155960083, 0.38878941535949707, -3.989582061767578, 3.8299474716186523, 7.605331897735596, -8.118355751037598, -4.688663959503174, -9.24986743927002, -2.217251777648926, 0.9283143877983093, 8.58800983428955, -0.29647135734558105, -0.03244318813085556, 0.03846445307135582, -1.0560107231140137, -0.5105419158935547, -0.5243087410926819, 9.728303909301758, -2.1985254287719727, 24.660974502563477, 0.16715963184833527, -2.9150540828704834, 0.21476252377033234, -13.26980209350586, -9.466134071350098, 3.7845957279205322, 0.5547063946723938},{1.0858958959579468, -5.943663597106934, 1.146644949913025, -1.6936817169189453, 3.411747694015503, 1.6698875427246094, -7.107013702392578, -0.32315436005592346, -9.118620872497559, -0.16661274433135986, -0.3526787757873535, -8.59117603302002, 0.6230250000953674, 7.480885028839111, -7.415006637573242, -3.1739776134490967, -5.706609725952148, 6.2036662101745605, 2.443871021270752, 8.855058670043945, 0.6039817929267883, 0.5045024752616882, 0.6294868588447571, -1.772616982460022, -1.083193063735962, -0.5127716064453125, 10.758185386657715, -2.1423428058624268, 28.776334762573242, -1.1590521335601807, 1.0138169527053833, 2.0399856567382812, -12.495989799499512, -13.388422012329102, 4.760010719299316, 0.38373512029647827},{-0.8054062128067017, -7.224082946777344, -7.391479969024658, -1.388490080833435, -5.968785762786865, 2.147383689880371, -4.072684288024902, 0.7150733470916748, -9.132866859436035, 0.889400839805603, 0.7856205105781555, 0.8758310079574585, 4.058541774749756, 5.5117573738098145, -5.248423099517822, -3.578550338745117, -5.708428382873535, 8.64682388305664, 3.7951388359069824, 2.0255377292633057, -0.8615180253982544, -0.3601721227169037, 0.21849945187568665, -0.8445165157318115, -6.6893630027771, 0.1194276511669159, 0.5297671556472778, -1.8939882516860962, 24.51449966430664, -0.7029983997344971, 2.0038764476776123, 1.7610769271850586, -9.469677925109863, -14.501039505004883, -0.5080319046974182, 2.510491371154785},{1.1874847412109375, -5.172100067138672, -2.640064001083374, 0.7438226342201233, -2.4955780506134033, -4.815858364105225, -2.6960034370422363, -1.447290301322937, -8.37868595123291, 1.8129761219024658, -0.011514561250805855, 0.726313054561615, 1.501886010169983, 9.317584037780762, -1.2599576711654663, -0.797369122505188, -7.540985107421875, 4.200133800506592, 1.1413135528564453, 3.966876983642578, 0.1506146639585495, -0.13365738093852997, -0.11407648772001266, -0.8323444128036499, -5.823421478271484, -0.6925917863845825, -3.0198581218719482, -11.893217086791992, 22.22686195373535, 0.8894810080528259, -2.6445846557617188, -3.334975242614746, -7.263472557067871, -4.3282575607299805, 9.548307418823242, 2.566786050796509},{0.5491338968276978, -6.02695369720459, 4.345880508422852, 0.4599987864494324, -0.5424060225486755, -4.139496803283691, -2.8525390625, -0.34083008766174316, -7.672138690948486, 0.615859866142273, -0.26507481932640076, 2.8559536933898926, -0.29867833852767944, 12.582844734191895, 0.19098830223083496, -1.0316956043243408, -5.608101844787598, 2.2081644535064697, 1.059057354927063, 3.982759952545166, 0.7443393468856812, -0.30516666173934937, 0.6324249505996704, -1.6533846855163574, -7.6360883712768555, -0.8690437078475952, -5.839198589324951, -14.076165199279785, 21.316112518310547, 0.48602062463760376, -2.7696359157562256, -1.5885168313980103, -5.555595874786377, 0.3687933087348938, 13.88260269165039, 1.953194499015808},{1.303142786026001, 0.48514607548713684, 19.12380599975586, 1.5354138612747192, 3.4491591453552246, -7.708869457244873, -2.5881457328796387, 0.9212007522583008, -8.532796859741211, 0.2561403810977936, 0.04908406361937523, 3.3846871852874756, -4.425823211669922, 21.173919677734375, 0.1125716120004654, 2.8770194053649902, 2.133841037750244, 15.863680839538574, -0.24966926872730255, 7.233043193817139, -0.027065696194767952, -0.27426451444625854, 0.06401781737804413, -0.26647287607192993, -6.126783847808838, -0.16099302470684052, -2.1320581436157227, -9.96562385559082, 26.687726974487305, 0.40049758553504944, 2.4915847778320312, -2.1465036869049072, -1.3292306661605835, 1.611371636390686, 14.950149536132812, 2.309929132461548},{1.4814890623092651, 4.329198360443115, 13.62162971496582, 0.35125455260276794, 4.972249507904053, -3.860025644302368, -1.010678768157959, -0.29542237520217896, -4.34100341796875, 0.3114567697048187, -0.691702127456665, 3.6508476734161377, -1.32903254032135, 15.033479690551758, 2.2474558353424072, 2.307112216949463, 2.5036327838897705, 16.296472549438477, -2.8828790187835693, 7.735105991363525, -0.06351184844970703, 0.29818886518478394, -0.18739043176174164, 0.9312459826469421, -1.6470184326171875, -0.10295189917087555, 2.0006868839263916, -5.86662483215332, 30.201274871826172, -0.6473148465156555, 0.4409339725971222, -3.1869421005249023, -1.5329768657684326, 2.675518035888672, 12.618317604064941, 1.0461559295654297},{1.500840187072754, -1.0034754276275635, 11.939905166625977, -2.1940977573394775, 12.516494750976562, 0.15430127084255219, -2.0909526348114014, -1.1267483234405518, -9.624348640441895, -0.7449154257774353, -0.2004930078983307, -2.6178929805755615, -2.015958309173584, 9.624640464782715, 2.2787818908691406, -7.102311611175537, -9.27133846282959, 9.951346397399902, -3.88478946685791, 4.279089450836182, 0.34446001052856445, -0.5783734917640686, 0.12500841915607452, -1.0023692846298218, -4.355532646179199, 0.4028759002685547, 14.531427383422852, -10.315003395080566, 38.34513854980469, 0.23965156078338623, -0.8901971578598022, 2.516418933868408, -7.707325458526611, -2.033855438232422, 11.93715763092041, 1.7414056062698364},{1.0947175025939941, 0.22158338129520416, 8.172821044921875, 0.6614691019058228, 7.46673059463501, 1.23842453956604, -0.39368560910224915, -0.1585288941860199, -3.2141971588134766, -0.5373281836509705, 0.0022142683155834675, -4.131323337554932, -3.1264290809631348, 5.889516353607178, 1.199470043182373, -7.992650508880615, -9.604280471801758, 8.260950088500977, -2.3281049728393555, -0.5340977907180786, 0.05257074534893036, 0.06599389016628265, 0.5783078074455261, 0.6283268928527832, 1.9469043016433716, 0.7114081382751465, 8.552275657653809, -4.698439598083496, 36.17699432373047, 0.14020046591758728, 0.28058063983917236, 2.0972604751586914, -4.130354404449463, -2.0667731761932373, 7.748379707336426, 0.5743551254272461},{0.14059750735759735, 1.1537443399429321, 11.940879821777344, -0.9680429697036743, 9.625751495361328, 1.7542632818222046, -0.4719293415546417, 0.11632139980792999, -0.03276510909199715, 1.1893690824508667, 0.12735790014266968, -8.076203346252441, -3.7615346908569336, 5.36098051071167, 0.8666793704032898, -3.977048397064209, -3.222028970718384, 10.509369850158691, -0.42209088802337646, 2.9401843547821045, 0.003346031531691551, 0.4727035164833069, 0.11428991705179214, 0.31196731328964233, 0.932183563709259, 0.5433886647224426, 15.861612319946289, -1.2111393213272095, 35.347415924072266, 0.30627310276031494, 2.8878138065338135, 0.2296976000070572, -2.396876096725464, -4.085489749908447, 9.287470817565918, -1.8995137214660645},{-0.47124072909355164, 1.5678467750549316, 1.6878242492675781, -1.210300326347351, 8.598992347717285, 1.4953768253326416, 0.775056779384613, 0.7940779328346252, 2.20733904838562, 0.19663603603839874, 0.17191152274608612, -15.637687683105469, -0.6484805345535278, 3.318190813064575, 0.9209399819374084, -2.3342444896698, 0.3640756905078888, 8.85118579864502, -0.4636034071445465, 1.3062533140182495, 0.21229203045368195, 0.0307462140917778, -0.05180409178137779, 0.6313760280609131, 1.2159379720687866, 0.10252571851015091, 18.026456832885742, 1.959410309791565, 32.95623779296875, -0.3566190004348755, -0.12260348349809647, -1.2965515851974487, -8.216185569763184, -9.613998413085938, 4.089113712310791, -3.120400905609131},{-2.1514782905578613, -0.35193273425102234, -6.196537971496582, 0.025448689237236977, 1.5909706354141235, 0.665119469165802, -1.1456637382507324, -0.5242837071418762, 0.9775665998458862, -0.8604460954666138, 0.500708281993866, -11.189647674560547, 3.7160120010375977, -0.8462344408035278, 0.7288804054260254, -3.2434608936309814, -6.349629878997803, 0.3954966366291046, 0.6801897883415222, -1.7742964029312134, 0.11370900273323059, 0.10800858587026596, 0.3931037485599518, 0.2463834285736084, 2.2129874229431152, 0.5137121677398682, 6.15668249130249, -1.6011981964111328, 29.039020538330078, -1.172461748123169, -3.5921730995178223, -0.05458582565188408, -3.2769858837127686, -3.4068188667297363, -1.9962350130081177, -1.7520053386688232},{-0.25646400451660156, -3.2826895713806152, -2.430406332015991, 0.659507691860199, 0.6504384279251099, -0.11203061789274216, -3.7677292823791504, 0.916511595249176, -1.7797441482543945, -1.0835256576538086, 0.15844161808490753, -6.012152194976807, 3.280313014984131, -2.3928658962249756, 0.5029785633087158, -8.549422264099121, -13.302858352661133, 0.7451363801956177, 0.595069408416748, -1.6561418771743774, -0.522771954536438, 0.04373970255255699, -0.4774150550365448, 0.65052330493927, 0.5531407594680786, -0.5572830438613892, 6.386187553405762, -1.7989602088928223, 31.456302642822266, 0.18395429849624634, -4.134437561035156, 2.594254493713379, -0.9782928824424744, -6.549706935882568, -0.9470023512840271, -2.403236150741577},{0.2994856536388397, -0.5376144051551819, -1.9347782135009766, 0.07350528985261917, 0.1980149745941162, -0.18416783213615417, -2.876047372817993, 0.0897168293595314, -5.017711639404297, -0.3394302725791931, 0.2234346568584442, -4.160394191741943, -1.38581120967865, -3.416320323944092, -1.8173575401306152, -9.313003540039062, -14.234489440917969, 4.833890438079834, 1.7967127561569214, -2.693666458129883, 0.29612234234809875, -0.04400591179728508, -0.4949006140232086, -0.7621623873710632, -0.13808125257492065, -0.7554793357849121, 6.118183612823486, -3.1525049209594727, 31.820846557617188, -0.3925865888595581, -3.00689959526062, 0.9960638880729675, -2.671741008758545, -10.866545677185059, 0.3246534466743469, 0.816209614276886},{2.0281684398651123, -0.14072193205356598, -7.798490524291992, 0.013168510049581528, -3.519826889038086, -0.7860220670700073, -2.514086961746216, -0.4936467707157135, 0.47284695506095886, -0.7655467987060547, -0.05493598431348801, 2.7214839458465576, 0.4593568444252014, -2.636817216873169, -1.9682410955429077, -3.7684690952301025, -10.787336349487305, 0.9591221213340759, 1.4025063514709473, -1.7946416139602661, -0.47514426708221436, 0.39106038212776184, -0.058700207620859146, -0.22114847600460052, -3.4362070560455322, -1.0046662092208862, -6.724488258361816, -6.1251654624938965, 27.2490234375, 0.19782401621341705, 2.073007106781006, 0.7173292636871338, -0.9160006046295166, -4.378317356109619, -1.9407793283462524, 0.6714621186256409},{2.509722948074341, 1.2850341796875, -2.9974629878997803, 0.727374255657196, -0.7178491353988647, 0.3602662980556488, -4.179770469665527, 0.9054523706436157, 1.7002623081207275, -0.35791435837745667, -0.043029773980379105, 1.1487746238708496, -2.2628839015960693, 3.560757637023926, -4.860203266143799, -2.223125696182251, -9.90969181060791, -3.3339927196502686, 0.19032615423202515, -2.533264636993408, 0.20802393555641174, -0.5260112285614014, 0.4780336022377014, 0.6327421069145203, -2.5625360012054443, 1.440429449081421, -5.484531402587891, -8.186031341552734, 28.619075775146484, -0.4172930121421814, -2.951091766357422, -0.359274685382843, 1.6782844066619873, 1.1322672367095947, -0.12109872698783875, 0.6248216032981873},{1.6076232194900513, -0.0432765893638134, 11.203332901000977, -0.8095698356628418, 2.147751569747925, 0.881375789642334, -11.516142845153809, -0.5720819234848022, -1.4492474794387817, 0.7756466269493103, 0.016714097931981087, 4.355253219604492, -1.7643171548843384, 2.645195484161377, 0.8582432270050049, -0.8656954765319824, -10.234858512878418, 8.02039909362793, 0.0411703996360302, -0.5772988200187683, 0.16259461641311646, -0.2077130824327469, -0.0993555337190628, -0.34268918633461, -4.789139747619629, 1.0292333364486694, 0.8684250116348267, -17.2559814453125, 34.16275405883789, 1.1080832481384277, 1.414212703704834, -2.8769400119781494, 2.560610055923462, 0.46239855885505676, 7.326039791107178, 0.9505690336227417},{0.48014503717422485, -0.6162601113319397, 7.069828033447266, -0.02632291428744793, 3.960470676422119, 0.4578304886817932, -11.211658477783203, -0.16155873239040375, 0.6424485445022583, 0.6659579873085022, -0.023575754836201668, -0.18652750551700592, 0.8959782123565674, 6.397825241088867, -0.024817345663905144, 0.740043580532074, 3.975813150405884, 10.594761848449707, -0.638768196105957, -0.13187339901924133, 0.2114959955215454, 0.17472055554389954, 0.3127163350582123, -0.08314473927021027, -0.03582143038511276, 0.27883750200271606, -3.0490427017211914, -1.4216830730438232, 32.99164581298828, 0.12868936359882355, -0.5804048776626587, -1.8328375816345215, 2.1187591552734375, 0.477128803730011, 1.4048064947128296, -0.2853078842163086},{1.2591074705123901, 0.26868921518325806, 7.68426513671875, 0.22267979383468628, 5.426712989807129, 0.09648758918046951, -10.704155921936035, -0.3015751838684082, 1.509792685508728, 0.5258744359016418, -0.1757088601589203, 0.3829714059829712, 0.13757900893688202, 6.738526821136475, 0.5088140368461609, 1.9043803215026855, 4.528567790985107, 10.499946594238281, -0.7226021885871887, 0.973438560962677, 0.02416672743856907, 0.023887408897280693, -0.2575462758541107, -0.009614204056560993, -0.040315281599760056, 0.1553402692079544, -2.4828410148620605, -1.2170581817626953, 33.29681396484375, 0.6386251449584961, -0.25467753410339355, -3.0459342002868652, 2.161029815673828, 1.0697864294052124, 1.4184589385986328, -0.2543090283870697},{-1.7635682821273804, 1.1113651990890503, 13.928982734680176, -0.3590205907821655, 6.696161270141602, -1.2197175025939941, -13.6713228225708, 0.45034128427505493, 0.6576421856880188, 1.618465781211853, -0.3902232348918915, -4.293888092041016, 0.6384989619255066, 4.171281337738037, 2.9857029914855957, -0.3233301639556885, -3.221865177154541, 16.840452194213867, -1.5180987119674683, 5.8801798820495605, 0.19771598279476166, 0.17220070958137512, 0.31102630496025085, -0.48093274235725403, -2.425377130508423, -0.22055718302726746, 9.63333797454834, -3.0087623596191406, 40.33698272705078, -0.5985776782035828, 0.2513611614704132, 2.3356103897094727, 3.349555730819702, 0.26335346698760986, 1.816361904144287, -0.39171138405799866},{-0.972034752368927, 0.43135178089141846, 11.3519868850708, -0.37401846051216125, 9.555377006530762, 0.5197719931602478, -4.313289165496826, -0.4053216874599457, 1.2248120307922363, 0.7145466804504395, 0.3437896966934204, -6.692230701446533, -0.014531111344695091, 0.2520655691623688, 0.6660900712013245, 0.8900584578514099, 0.4067045748233795, 24.713672637939453, 0.2411356419324875, 1.9023175239562988, -0.3177308142185211, -0.5388222336769104, -0.2406187653541565, 1.0013478994369507, 1.9917607307434082, 0.17014504969120026, 13.371503829956055, 0.07124987244606018, 41.593746185302734, -0.27320396900177, -0.4170941710472107, 0.6076083183288574, -0.8251566886901855, -1.3828707933425903, 0.5527355074882507, 0.1854872852563858},{-1.5352221727371216, -0.1043938398361206, 10.693452835083008, 0.3478442430496216, 8.888529777526855, -0.12203770875930786, -5.2278218269348145, 0.23675498366355896, 1.1764227151870728, -0.9044065475463867, -0.1937246173620224, -7.194419860839844, 0.2742115259170532, 0.3679146468639374, 0.7959774732589722, 0.6701550483703613, 0.19061820209026337, 25.093555450439453, 1.1013679504394531, 1.6865222454071045, -0.21508179605007172, 0.5180675983428955, -0.18447254598140717, 0.194306418299675, 2.165727376937866, 0.11117187887430191, 13.068840980529785, -0.1736346334218979, 40.87992477416992, 0.9845606684684753, 0.2672763466835022, 1.480827808380127, -0.3885888457298279, -1.4449795484542847, 0.3936667740345001, 0.7899231910705566},{-0.788941502571106, -0.7755106091499329, -3.801776170730591, 0.40658342838287354, -2.2446036338806152, 0.21100616455078125, 3.6334712505340576, -0.7882359623908997, 1.808914065361023, -0.9610684514045715, -0.236453115940094, -3.6798698902130127, 0.5851880311965942, -0.8490905165672302, -0.7680337429046631, 0.13717208802700043, -3.3631348609924316, 19.94236946105957, -0.06048288568854332, -0.24237585067749023, -0.1137530580163002, 0.06953427940607071, -0.08895214647054672, 0.3777572214603424, 0.41276851296424866, -0.644529402256012, 5.260356903076172, 1.9594022035598755, 33.149269104003906, -0.3270386755466461, 0.3311927616596222, 0.1751786768436432, -3.2984728813171387, -11.37065601348877, -3.12893009185791, 0.20873141288757324},{-0.7042739391326904, -1.1155223846435547, -3.460145950317383, -0.20737451314926147, -2.2631287574768066, -0.3466590642929077, 2.830024242401123, -0.25034797191619873, 1.4405875205993652, -1.2889782190322876, -0.26803135871887207, -2.893768787384033, -0.1640155166387558, -1.0860670804977417, -0.3073635697364807, 0.19467449188232422, -3.6329548358917236, 20.4102840423584, -0.3806387782096863, 0.7022143006324768, 0.06040315330028534, 0.3879392147064209, -0.3441433906555176, -0.050691552460193634, -0.07277372479438782, -0.4122845232486725, 5.00575590133667, 1.641595482826233, 32.93597412109375, -0.326070100069046, 0.20940421521663666, 0.8545937538146973, -3.524989604949951, -10.060376167297363, -2.6069140434265137, 0.16451126337051392},{1.0393670797348022, 0.5481297969818115, 1.688011884689331, -0.4417618215084076, 0.3513292074203491, 0.36647751927375793, -12.142740249633789, 0.3755095303058624, -0.9692649245262146, -0.17391866445541382, 0.046454962342977524, 1.6537811756134033, -0.36620745062828064, -1.8658666610717773, 0.18006788194179535, 0.7249208688735962, 0.3396928906440735, 34.88337707519531, -0.13246788084506989, -0.9183739423751831, 0.0953371599316597, -0.3897874355316162, 0.3188619315624237, -0.26732292771339417, -0.3240402638912201, -0.06017541140317917, 1.0514390468597412, -1.6815900802612305, 39.23250198364258, 0.5833273530006409, 0.6590611338615417, -0.2705135941505432, -4.988155841827393, -8.80063247680664, -0.6069923639297485, 0.3953949213027954},{-0.2904250919818878, 0.9410687685012817, 1.4533778429031372, 0.3144139349460602, -0.008189396932721138, 0.168708935379982, -12.975433349609375, -0.11011303216218948, -0.6955553293228149, -0.8025648593902588, 0.7723526358604431, 1.8812018632888794, -0.6956505179405212, -1.9627554416656494, 0.1418485790491104, 0.2884572744369507, -0.6041001081466675, 35.49284744262695, 0.1707942634820938, -1.5572892427444458, -0.18158748745918274, -0.41488561034202576, 0.3562389314174652, -0.5322225093841553, -0.4575849175453186, 0.4370885491371155, 0.9499577879905701, -2.9327170848846436, 39.344207763671875, -0.4019297659397125, 0.5001968145370483, -0.32774898409843445, -4.169063091278076, -8.995294570922852, -0.741702139377594, 0.1631186455488205},{3.097515344619751, -2.3133902549743652, 1.9476124048233032, 0.39274469017982483, -1.626672625541687, -0.3108167052268982, 2.5241894721984863, 0.0805741474032402, 0.09798195213079453, 1.8270665407180786, -0.08997785300016403, -0.7589406371116638, 0.3179032802581787, 2.2970683574676514, -0.8624783754348755, -0.6713434457778931, 0.7114852666854858, 28.497434616088867, 0.672845184803009, -0.6427435874938965, 0.2089920938014984, -0.3785780668258667, -0.16203968226909637, 0.5806422829627991, 0.80582195520401, 0.7842011451721191, -2.2005531787872314, 0.5663767457008362, 28.957599639892578, 0.8916758894920349, -0.8553951978683472, 0.1502034217119217, 1.7485263347625732, 1.2291998863220215, 0.30996379256248474, -0.4110989570617676},{2.5196516513824463, -2.9184746742248535, 2.1201717853546143, 0.21349534392356873, -1.6504364013671875, -1.3375881910324097, 2.5492146015167236, -0.08508430421352386, -1.2978085279464722, 1.8433337211608887, -0.9988173842430115, -0.7378541231155396, -0.6360509991645813, 3.53432559967041, -1.1972366571426392, -0.666868269443512, 0.7125418186187744, 29.55946922302246, 0.3009466528892517, 0.5106410980224609, -0.4502769112586975, -0.11294722557067871, -0.7556482553482056, -0.17058558762073517, 0.7546023726463318, 1.5533344745635986, -1.739942193031311, 1.3962368965148926, 29.296403884887695, 0.13739940524101257, -0.727389931678772, -0.05493701621890068, 2.1238601207733154, 1.2546273469924927, 0.24499616026878357, 0.2785990238189697},{0.540995180606842, -0.4316016733646393, 3.2527339458465576, 0.3013475835323334, -1.562613606452942, -0.4850935637950897, 0.892877459526062, 0.47961145639419556, -0.9689224362373352, 2.286410093307495, 0.02324495278298855, -0.13910003006458282, -0.504267156124115, 1.0624784231185913, 0.6627366542816162, -0.0715668648481369, 1.4011871814727783, 29.415071487426758, 0.5950621366500854, 0.10587313771247864, -0.4769611060619354, 0.17340534925460815, 0.22143904864788055, 0.8641360998153687, -0.5778831243515015, 0.4960682690143585, -2.312110424041748, 0.1604653149843216, 29.08549690246582, 0.5755733847618103, 0.1462431252002716, 0.31807827949523926, 1.5048856735229492, 0.16094008088111877, 0.6196752190589905, -1.1074618101119995},{-3.319831132888794, -0.4173879623413086, -6.5140581130981445, -0.3536069393157959, 0.3019702136516571, -0.1304910033941269, -2.893711566925049, -0.2463211566209793, 1.9750620126724243, 1.1310925483703613, -0.191338911652565, 1.614604115486145, 0.9892056584358215, -2.4989254474639893, 1.4114587306976318, 0.6932229399681091, 0.7558404803276062, -8.734223365783691, -0.4548565149307251, -2.5861825942993164, 0.9188886880874634, 0.4271557033061981, 0.3662566840648651, 1.4771119356155396, 0.714428722858429, 1.662932276725769, -3.592710494995117, 1.923525333404541, -4.67926549911499, 3.779064416885376, 1.8725483417510986, 1.3802826404571533, 1.9984227418899536, 2.853337287902832, -0.25983893871307373, -0.050431691110134125}};
float hidden_neuron_1_biases[36] = {0.5811830759048462,-0.5655558705329895,-0.14956232905387878,-1.203397512435913,-0.13657927513122559,-1.0463100671768188,0.3401534855365753,0.5298564434051514,-0.6563431620597839,0.8261555433273315,0.18694818019866943,-0.197909876704216,-0.6098132133483887,-0.306033194065094,-0.5420318245887756,-0.08805250376462936,-0.3221754729747772,-0.12990525364875793,-0.9843841791152954,1.0009982585906982,-0.526212215423584,-0.09425792843103409,-0.20260444283485413,0.7547910213470459,-0.28075411915779114,0.6278207302093506,-0.017943628132343292,-0.17159588634967804,0.24881590902805328,1.9633115530014038,-0.25185006856918335,-0.7431829571723938,-0.6866358518600464,-0.20104986429214478,0.0867646187543869,-0.6471580862998962};
float hidden_neuron_2_weights[36][8] = {{-0.05327529460191727, -0.25966042280197144, 0.11321955919265747, -0.7982427477836609, -0.7508842945098877, -0.3978196382522583, -0.9116610884666443, -0.8024091720581055},{-1.2286784648895264, 0.043286167085170746, -1.28019118309021, 1.0137059688568115, 0.6845983862876892, 1.7143018245697021, -2.0914411544799805, 1.3397570848464966},{-0.3690868020057678, -0.768990695476532, -1.1956695318222046, -2.0113232135772705, -2.0732457637786865, -0.34837615489959717, 0.023565446957945824, 0.07834487408399582},{5.881410598754883, -0.4613025188446045, -0.4350895285606384, 0.6862046122550964, 0.5008538365364075, -0.04394768923521042, 1.9930124282836914, 0.3685324192047119},{-0.3932383358478546, -1.01748526096344, -0.10158465057611465, -1.8826954364776611, -1.429950475692749, -1.0635236501693726, -1.2719489336013794, 0.8538433313369751},{0.8230583667755127, -0.07690083235502243, 3.728083372116089, 0.3796308636665344, 0.6323941946029663, 0.6474030613899231, -2.769822359085083, -0.037145666778087616},{-0.19165609776973724, -2.5681402683258057, 0.09757725149393082, 1.7282854318618774, 1.5954298973083496, 0.09310418367385864, -2.4314463138580322, -3.369837760925293},{-1.0299251079559326, 2.3029232025146484, -0.059738025069236755, 0.7340160012245178, 0.6324273943901062, 1.31125009059906, -0.5948331356048584, 1.1856368780136108},{1.8162484169006348, 1.911582112312317, -1.3149794340133667, 1.1838419437408447, 1.3015469312667847, 0.5150730013847351, -1.8448127508163452, 0.3151644766330719},{1.2310773134231567, 0.388119637966156, -0.374830037355423, -0.7649546265602112, -1.0713557004928589, -0.8544323444366455, -0.4068758189678192, -1.447536587715149},{2.9916837215423584, 2.554751396179199, -0.21425798535346985, 0.4131811261177063, 0.6041790843009949, 0.6612905859947205, 1.4750559329986572, -1.1644752025604248},{1.1899482011795044, -1.4173543453216553, 1.1254881620407104, 1.416335105895996, 0.9559921622276306, 0.4269428253173828, 3.9236321449279785, -0.7169734835624695},{1.0805472135543823, 1.5718638896942139, 4.042684078216553, 0.5348420143127441, 1.0151872634887695, 0.44808316230773926, 0.2949438691139221, -1.6237303018569946},{0.84846031665802, -1.1327621936798096, -1.0625379085540771, -1.7226864099502563, -1.6875473260879517, 0.10410287976264954, -0.5904265642166138, -1.0956976413726807},{-3.5492424964904785, -0.3005402982234955, 0.43491625785827637, 0.6321563720703125, 0.734737753868103, 1.400225043296814, 0.5097107887268066, 3.410259246826172},{0.47024112939834595, -0.968961238861084, -2.713662624359131, 0.707700788974762, 0.6217727065086365, 1.626959204673767, 0.25366559624671936, -0.8262458443641663},{-1.0129995346069336, -0.6417751908302307, -3.400301694869995, 1.0733317136764526, 1.4407869577407837, 1.631606101989746, -1.46531081199646, -0.3678843379020691},{-0.48742538690567017, 1.877367377281189, -1.0942598581314087, -3.5440523624420166, -3.544558048248291, -1.2896738052368164, 0.1258687525987625, 0.1530044674873352},{-0.7341557741165161, 0.4498952031135559, 0.9782029390335083, 0.5616572499275208, 0.7143129110336304, 0.14912664890289307, 1.8214555978775024, 0.43043357133865356},{-0.5085492730140686, -1.3421226739883423, -0.7889508605003357, -0.8107526302337646, -1.28525710105896, -1.0431734323501587, -0.27382734417915344, -0.9755151867866516},{2.993863105773926, -1.4313634634017944, -0.32952240109443665, 1.066405177116394, 0.6499587297439575, -0.23799464106559753, -0.7073688507080078, 2.908900737762451},{-1.120597243309021, 2.3208837509155273, -0.14667825400829315, 0.2784619927406311, 0.7275567054748535, 0.4043118953704834, 3.314068555831909, 0.2807786166667938},{-1.7284733057022095, -1.2183959484100342, 2.2011024951934814, 0.7717685103416443, 0.3924647569656372, 0.7170052528381348, 1.719101905822754, -2.1544735431671143},{1.458074688911438, 0.75177401304245, 0.6846827864646912, 0.9399555921554565, 0.7348345518112183, 0.798633337020874, -1.2696380615234375, -0.8171218037605286},{0.6550332903862, 0.381406307220459, 0.5892371535301208, 1.4124857187271118, 1.2934370040893555, -0.21287092566490173, -2.1691231727600098, 0.7418854832649231},{0.017504174262285233, 0.4565076231956482, -0.726075291633606, 0.25094074010849, 0.32267260551452637, 1.4383763074874878, 1.1452840566635132, 1.0740885734558105},{-1.764248251914978, -0.5162522792816162, 0.27990496158599854, -2.084299087524414, -2.057731866836548, -1.182271122932434, -0.5711756944656372, 0.7089235186576843},{-1.8677366971969604, 2.126168966293335, 0.16948142647743225, 1.524291753768921, 1.242082953453064, 0.7218419313430786, -3.1469016075134277, -1.6907336711883545},{-0.7371189594268799, 0.300041139125824, 0.09227649122476578, -4.062016487121582, -3.994056224822998, -1.4949437379837036, 0.15987080335617065, 0.26694154739379883},{0.4641721248626709, 1.250248908996582, 3.930840253829956, 0.394923597574234, 0.5584820508956909, 0.5425736308097839, 0.1517174392938614, 0.5187718868255615},{-1.9060789346694946, -0.5894419550895691, -2.3245391845703125, 0.7298076152801514, 1.0728626251220703, 1.8137496709823608, 0.8850897550582886, 0.10231512784957886},{-2.079655170440674, -0.37769192457199097, 2.0160717964172363, 0.40785136818885803, 0.3887832462787628, -0.3499290645122528, -0.12909714877605438, -0.5966804027557373},{2.0726284980773926, 0.50330650806427, -0.9469919204711914, 1.3412467241287231, 1.5042906999588013, 0.490467369556427, 1.2919195890426636, 2.7127819061279297},{1.4706885814666748, -2.44303560256958, -1.7726398706436157, 1.4982426166534424, 1.4561419486999512, 0.1386820673942566, 0.3718409240245819, 1.9645915031433105},{-0.23202025890350342, -2.6125874519348145, -0.24836909770965576, -1.6599693298339844, -1.3846731185913086, -1.0507835149765015, 0.018212608993053436, 0.07795864343643188},{1.566616415977478, -0.587810754776001, 0.6125668287277222, 0.5252289175987244, 0.5532400608062744, 1.4211297035217285, 4.841629505157471, 1.5944273471832275}};
float hidden_neuron_2_biases[8] = {-0.75290447473526,-0.4588339626789093,-0.19683821499347687,-0.42181822657585144,-0.3288528323173523,-0.2016047239303589,-0.24901935458183289,-0.2824762463569641};
float hidden_neuron_3_weights[8][36] = {{-2.0226006507873535, 1.937941312789917, -2.2996373176574707, 2.7578580379486084, 1.1333144903182983, -0.8588661551475525, -2.0992202758789062, -0.9606577754020691, -2.6731045246124268, 2.1473677158355713, -7.044109344482422, -2.6716270446777344, 3.6255717277526855, 0.4868870675563812, 2.3954813480377197, 2.3504974842071533, -1.1433244943618774, -2.100715160369873, 0.057174839079380035, 3.726426362991333, 3.685930013656616, 3.8046464920043945, 1.7665088176727295, 2.7780892848968506, -0.8991886973381042, -3.422011137008667, -1.9376329183578491, 6.416393756866455, -3.1019372940063477, 0.055402327328920364, -6.323906898498535, -7.581979751586914, -4.073516845703125, -0.5786606669425964, -6.708576679229736, -2.1851580142974854},{0.7855572700500488, -4.341285705566406, 4.896589279174805, -0.07760929316282272, 7.152252197265625, 3.422647714614868, -4.45731782913208, -3.519314765930176, 3.486088514328003, -0.7242871522903442, 0.03284280374646187, 0.6303553581237793, 1.0390654802322388, 0.46527040004730225, -1.0778254270553589, 1.1775273084640503, -2.934666395187378, -3.2401270866394043, 1.153009295463562, 3.224263906478882, 0.9350341558456421, -0.6713487505912781, -4.303823947906494, -7.252869129180908, 4.068497657775879, 0.09307923913002014, 1.105717658996582, 1.8069853782653809, -5.613971710205078, 2.4544456005096436, 3.6430583000183105, -2.291473865509033, 0.10474444925785065, -2.676340341567993, 3.4728493690490723, 9.946497917175293},{-7.6616106033325195, -1.9911402463912964, -1.9031262397766113, 11.415693283081055, 7.897313117980957, -2.7677276134490967, 1.4944980144500732, -0.9724318981170654, 10.540186882019043, 0.19890253245830536, -3.0238406658172607, 7.943624496459961, 2.6306841373443604, 1.2556360960006714, 14.954768180847168, 5.270386219024658, 0.5155014991760254, -5.719176292419434, 1.756084680557251, 1.8070383071899414, 1.4219468832015991, -6.3283891677856445, -1.5899767875671387, 10.92387866973877, 13.85230827331543, -4.3343119621276855, -8.615126609802246, -7.480741500854492, 4.31842041015625, -7.117066860198975, 20.000246047973633, 16.261423110961914, -5.5251545906066895, 11.672493934631348, 4.573105335235596, 6.90578556060791},{1.270172357559204, -2.3345725536346436, 3.568713903427124, -0.9875320196151733, -1.2387727499008179, -0.9197493195533752, 1.5682575702667236, 0.3038155138492584, -1.055531620979309, -1.4360437393188477, 1.4162747859954834, -1.3427125215530396, -0.574596107006073, -7.73003625869751, 0.2742431163787842, -0.27107173204421997, 0.15460972487926483, -1.578835368156433, -6.917450428009033, -0.3617866337299347, -0.27111250162124634, 1.2440816164016724, -2.2759017944335938, -0.3248297870159149, -0.9450726509094238, 1.2200428247451782, 3.016937255859375, 1.0033971071243286, -1.3591526746749878, 1.7102198600769043, -10.012511253356934, -2.023047924041748, 0.7843579053878784, -0.19143621623516083, 2.6738486289978027, 2.442998170852661},{1.7604418992996216, -2.630978584289551, 3.529512643814087, -0.4611741602420807, -1.2923396825790405, -1.3019435405731201, 1.3767882585525513, -0.07603466510772705, -0.564157247543335, -1.434306263923645, 1.6248271465301514, -1.0601997375488281, -0.05177051201462746, -7.205262660980225, -0.12241218239068985, -0.41339272260665894, 0.2896551787853241, -1.379006028175354, -6.831400394439697, -0.2793010175228119, -0.4454003572463989, 1.3241426944732666, -1.8335167169570923, -0.2687908411026001, -1.080148696899414, 1.6229455471038818, 3.193459987640381, 1.112727165222168, -0.9470177888870239, 1.4502321481704712, -9.681831359863281, -1.8066996335983276, 0.7247135043144226, -0.0596327967941761, 3.0386219024658203, 2.508795976638794},{0.375939279794693, -2.048358678817749, 1.8886924982070923, -1.9195587635040283, -0.19706019759178162, -1.8363560438156128, -0.6146413683891296, -1.3740037679672241, -0.06953015923500061, -1.6344530582427979, -0.08053292334079742, -0.05705615505576134, -3.475670099258423, -2.5527353286743164, -6.869678974151611, -1.5702067613601685, -3.722470283508301, -0.9340589046478271, -1.7569799423217773, -0.6527143120765686, -3.4531779289245605, -1.0686839818954468, -2.7576355934143066, -1.5320587158203125, -0.6012926697731018, -0.8171114325523376, 1.0374788045883179, -0.6701241731643677, -0.9107093811035156, -0.05953839048743248, 3.9016315937042236, -1.2266578674316406, -1.076465129852295, -1.2535268068313599, -0.6038087606430054, -0.39697927236557007},{-1.889185905456543, 1.7737810611724854, 10.636862754821777, -3.2878623008728027, -4.4462385177612305, 3.3512027263641357, 1.308709740638733, 5.717998504638672, -3.5555129051208496, -3.6103928089141846, 6.340508937835693, 11.870356559753418, -0.09132601320743561, 2.378821849822998, -2.6784896850585938, 9.857093811035156, 20.374786376953125, 2.5721139907836914, 1.348025918006897, -10.72205924987793, 16.92226791381836, 11.034446716308594, 1.060511827468872, 4.38601541519165, 1.2350934743881226, -6.508735179901123, 2.9412786960601807, 5.065456867218018, 0.31587880849838257, 7.863520622253418, 0.49662864208221436, 5.311627388000488, 3.230504035949707, 2.4467196464538574, -8.01396369934082, -4.94952392578125},{10.113216400146484, 0.9667705297470093, -2.035134792327881, -4.073031425476074, -3.5184693336486816, -6.416867733001709, -5.876719951629639, -5.398514747619629, 4.362683296203613, -1.5053346157073975, 9.418975830078125, -1.050031065940857, 12.856293678283691, 1.8195921182632446, -4.755401134490967, -1.8344660997390747, -0.658387303352356, 1.1953225135803223, 1.2646018266677856, -1.1146138906478882, -4.994996070861816, -2.1647942066192627, 1.3140581846237183, 4.280957221984863, -2.7114126682281494, 1.633997917175293, 5.83316707611084, -0.062260206788778305, -2.3978805541992188, 4.08449125289917, 4.124242782592773, 1.3972702026367188, -1.3411777019500732, -2.717472553253174, -2.632826089859009, 2.365422010421753}};
float hidden_neuron_3_biases[36] = {-0.09728129953145981,3.6005184650421143,-5.039086818695068,-2.6829118728637695,-3.9941327571868896,3.305147886276245,5.640571117401123,4.466215133666992,-3.602461814880371,3.0223639011383057,0.3762049674987793,-6.157500267028809,-4.103707313537598,4.6650800704956055,2.5083231925964355,-6.039412021636963,-0.6708604693412781,6.378849029541016,3.914564847946167,1.3461750745773315,-3.1564042568206787,-1.0440200567245483,3.843426465988159,-5.658316135406494,-6.701242446899414,7.4590744972229,-0.3676336109638214,-2.9106757640838623,3.598159074783325,-1.6196871995925903,-1.4402341842651367,-3.059631824493408,6.731695652008057,-2.6588897705078125,5.983190536499023,-4.340311527252197};
float output_neuron_weights[36][64] = {{1.4363747835159302, 1.3405652046203613, 1.2268368005752563, -3.550136089324951, -5.1745991706848145, -2.483612537384033, -1.1331130266189575, 0.43673545122146606, 0.7100400924682617, -0.6049866676330566, -0.791584849357605, 1.3430052995681763, -1.100694179534912, 0.3921046257019043, -1.1431978940963745, -4.282526969909668, -5.734943866729736, -6.474986553192139, -5.447982311248779, -0.44612306356430054, 0.23412887752056122, 0.7499752640724182, -2.0221500396728516, -0.5609752535820007, -0.7054880857467651, 0.16611234843730927, 0.6816341876983643, -3.379621744155884, -1.5612611770629883, -3.660161018371582, -1.9024591445922852, -2.609872817993164, 0.49337947368621826, 1.8836917877197266, 0.6932651400566101, -1.0947306156158447, -2.244121789932251, -0.4974077045917511, -2.9186813831329346, 1.3940460681915283, 0.9197870492935181, 0.9224593043327332, 0.09372816979885101, 1.8456655740737915, 0.6535153388977051, 1.6627568006515503, 0.9480196237564087, -0.29959815740585327, -1.0637201070785522, 0.32275575399398804, 0.2260812520980835, 0.6350706815719604, 0.02120915986597538, 0.802451491355896, -0.874277651309967, 0.8887770175933838, 0.00777190737426281, 0.7875328063964844, 1.3514734506607056, -0.2958028316497803, -0.7818485498428345, -3.476513147354126, 0.042865533381700516, 3.1611456871032715},{-4.180951118469238, 1.0069935321807861, 0.3460458815097809, 0.8915528059005737, 0.5886484384536743, 0.11746054142713547, -0.1397089809179306, 0.06378305703401566, -0.8780919313430786, 0.49250227212905884, 0.6558416485786438, -0.07266119867563248, 0.6598167419433594, 0.756336510181427, -0.09287098795175552, 0.3558501899242401, 0.09435446560382843, 0.7207688093185425, 0.5567249059677124, 0.007788601331412792, -0.7391332983970642, -0.22621643543243408, 0.007772280368953943, -0.45966142416000366, 0.32560065388679504, 0.376571387052536, -0.062257081270217896, -0.11541261523962021, 0.09597119688987732, 0.6172525882720947, 0.8210784792900085, 0.9301140904426575, -0.4940166771411896, -0.27873140573501587, -0.5032147169113159, 0.12636631727218628, 0.048648811876773834, -0.3795944154262543, 0.12452052533626556, -0.7990081310272217, -0.27142488956451416, 0.29530230164527893, 0.7273485660552979, 0.26090550422668457, -1.5180163383483887, -1.3015422821044922, -0.9562191963195801, 0.12144612520933151, 0.45424914360046387, 0.9125023484230042, -0.06429541856050491, -0.41855910420417786, -0.05482447147369385, -0.6252304315567017, -0.169668048620224, -1.160914659500122, -2.426157236099243, -2.6467020511627197, -0.7136640548706055, -2.6583666801452637, -1.4597800970077515, 0.09208834171295166, -1.8996295928955078, -3.2285268306732178},{0.7567025423049927, -0.2072056382894516, -1.4700171947479248, 0.6433947086334229, 0.5820307731628418, 0.9582324624061584, 2.6356825828552246, -2.792694568634033, 0.4024764895439148, -3.876699924468994, -1.1124566793441772, 0.5282899141311646, 0.8798509240150452, -1.6281449794769287, -4.028817653656006, 0.032532915472984314, -0.5607706308364868, 1.2091230154037476, 3.1275370121002197, 0.7082073092460632, -0.633359432220459, -4.628686904907227, -1.2658157348632812, 1.565719723701477, 1.2335511445999146, 0.059578973799943924, -3.109923839569092, -2.0111682415008545, 0.10538453608751297, -2.705730676651001, -2.07153058052063, -1.3480298519134521, -4.41579532623291, -6.130588531494141, 0.4215207099914551, 1.1415562629699707, 1.6161062717437744, 0.2218623012304306, -1.882272481918335, -0.6441068053245544, 0.0752393901348114, -2.744450092315674, -1.4759961366653442, -0.012777818366885185, -3.5516164302825928, -0.9659748673439026, 1.603900671005249, -0.608013927936554, -0.6368549466133118, -0.838762104511261, -0.09820973128080368, -0.2179645299911499, -0.46203213930130005, 1.1207001209259033, 0.4257147014141083, 0.1438136100769043, 0.013505731709301472, 1.6886401176452637, 1.810997486114502, -1.2517122030258179, 0.6950880289077759, 2.039025068283081, -1.369937539100647, 0.4784407913684845},{0.2002212405204773, 4.170038223266602, 2.1623001098632812, 0.07325857132673264, 0.497921347618103, 3.062592029571533, 3.061075448989868, 2.5833940505981445, 3.914271831512451, 2.614009141921997, 0.6705920696258545, -0.5735911726951599, -2.9729807376861572, 0.9974849820137024, -1.6695311069488525, -0.22518575191497803, -1.5558321475982666, 0.198587566614151, -0.3967570960521698, -1.7303643226623535, -1.073350429534912, -2.011258363723755, -2.8322436809539795, -2.823817253112793, -4.269431114196777, 1.0784796476364136, -0.023079950362443924, 0.037296731024980545, 0.18316572904586792, 1.5340713262557983, 1.1672241687774658, 0.35298168659210205, -0.9337335824966431, -1.5927733182907104, -1.4904520511627197, -0.8081169724464417, 0.10190020501613617, -0.00574719300493598, -5.752510070800781, 1.8860810995101929, -1.5305880308151245, -1.2016282081604004, -1.0817711353302002, 0.7713149785995483, 0.06986530870199203, -0.09754753857851028, 0.5043256282806396, 1.0767199993133545, 1.4567255973815918, -1.0883773565292358, -1.7807432413101196, 2.1690776348114014, -0.5006089806556702, -1.5232452154159546, -0.3717752695083618, -2.1538212299346924, 1.4762544631958008, 0.6025804877281189, -3.21805739402771, -0.24370311200618744, 0.7655330896377563, -3.0352091789245605, -1.4064884185791016, 0.4250025153160095},{-1.9984359741210938, -0.06761638820171356, 0.34307363629341125, -0.8017045855522156, 1.392757534980774, 0.4775809645652771, 2.6389434337615967, 3.3842484951019287, 2.2863967418670654, -1.737278938293457, -4.973514080047607, -0.1780245006084442, -3.702378273010254, -5.664193630218506, -4.552179336547852, -2.8916497230529785, -1.9425311088562012, -0.3503022789955139, -2.2806053161621094, -0.6962490677833557, -0.2659313380718231, 1.9818086624145508, -0.36982086300849915, 0.7091856002807617, -1.5855255126953125, -4.445850372314453, -4.028459072113037, -1.5977253913879395, -3.4235076904296875, -3.219886064529419, -0.6302163004875183, 1.2761242389678955, 0.2688170075416565, 0.4347856342792511, 0.17815516889095306, 1.467464804649353, 0.6192215085029602, -5.418999671936035, -0.9255050420761108, 0.829484760761261, -1.9329264163970947, -4.616423606872559, -1.05299711227417, 1.9031697511672974, 0.8049026727676392, 0.4022704064846039, 1.0431783199310303, 0.6939617991447449, 1.9795140027999878, -4.305469036102295, -1.8764762878417969, 0.8852972984313965, -3.112426519393921, -3.834292411804199, -1.8496077060699463, 3.0636181831359863, 0.8752302527427673, -0.06341167539358139, 1.6936626434326172, 1.8434361219406128, 1.7667489051818848, 2.180687427520752, 1.3574073314666748, -0.39098596572875977},{-3.0031235218048096, -0.32241496443748474, 1.3346835374832153, 0.38631078600883484, 0.5164863467216492, -0.10071200877428055, 0.34108874201774597, 0.8456485867500305, 1.7303352355957031, -0.6737030148506165, -1.202966570854187, 0.5766171813011169, -0.04099322482943535, -1.1101040840148926, 0.3439655303955078, 0.353346049785614, 0.4347595274448395, 0.316839337348938, 0.7914586067199707, 0.6253789663314819, 0.9623380303382874, -2.0363683700561523, -0.34903937578201294, -0.6148438453674316, 0.5272746682167053, -0.43619948625564575, -0.22600674629211426, 0.7273311614990234, 0.5033692717552185, -0.10082653164863586, 0.5031300187110901, -1.2779500484466553, 0.9629479050636292, -1.272542953491211, 0.9015485644340515, 0.02138938568532467, 1.3361657857894897, 0.038673076778650284, -0.06021377071738243, 0.4702952802181244, -1.2333950996398926, -3.2115955352783203, -2.2727296352386475, -2.347111701965332, -0.6669861078262329, -2.621405601501465, -0.8039773106575012, -0.3269330859184265, 0.07854608446359634, -0.6239238381385803, -0.7354503273963928, -3.6694304943084717, -5.4536309242248535, -4.558508396148682, -3.4156675338745117, -1.9574798345565796, 0.7317285537719727, 0.5511404275894165, -1.6839460134506226, 1.3233245611190796, 0.858559250831604, 0.20777061581611633, 0.8118064999580383, -1.0301332473754883},{-0.9056006073951721, -3.314276933670044, -0.7138570547103882, 0.47786542773246765, 0.5847713947296143, 0.7143148183822632, 0.9252173900604248, 1.198136329650879, 1.3656482696533203, -1.5935587882995605, -0.033666424453258514, 1.2127149105072021, 0.1136927381157875, -1.163413405418396, 1.187445878982544, 1.1491156816482544, 0.22839276492595673, 0.9128918647766113, 0.6179531812667847, 1.055349349975586, 0.3152773380279541, -1.2744497060775757, -0.33856645226478577, 0.7504197955131531, 0.24426458775997162, -0.5841503143310547, -0.9138218760490417, -0.6307591199874878, -0.7054948806762695, 0.14084285497665405, -0.33324024081230164, 0.14872786402702332, 0.2907423973083496, -0.05144904553890228, 1.0916060209274292, 1.4047497510910034, 1.504207730293274, 0.24931900203227997, 0.20464451611042023, -0.1918247789144516, -0.7504978775978088, -0.3667644262313843, -0.6236832737922668, -0.9638171195983887, -0.03793313354253769, -3.3090755939483643, -2.4413838386535645, -4.30448055267334, -2.0280203819274902, -1.8687751293182373, -2.8835325241088867, -2.3579049110412598, -1.7012484073638916, -2.5782952308654785, -2.928600311279297, -1.8878947496414185, -0.2242487370967865, -2.511502742767334, -2.8961246013641357, -2.598437786102295, -0.2916022539138794, -1.3984959125518799, -1.2792246341705322, -1.240652084350586},{-1.8890870809555054, -0.34409379959106445, 0.7023800015449524, 0.3757970929145813, 0.4760759770870209, 0.6138911247253418, 0.5625734329223633, 0.8069389462471008, 1.4952030181884766, -1.0184630155563354, -1.6646291017532349, 1.0633020401000977, -0.2204044610261917, -0.23628751933574677, 0.8376917839050293, 0.36623212695121765, 0.6061875820159912, 0.7417176365852356, 0.9025142788887024, 0.38338854908943176, 0.22847990691661835, -0.054685745388269424, -0.9478879570960999, -0.14219222962856293, 0.10183929651975632, -0.5212480425834656, -0.20963095128536224, 0.009091243147850037, -0.03205796703696251, 0.8235591650009155, 1.2614214420318604, -0.8677489161491394, 1.4055631160736084, 0.48036497831344604, 0.7320831418037415, 0.4431780278682709, 0.7644504904747009, -0.2261030077934265, 0.05452689528465271, 1.1427141427993774, 0.1516796052455902, 0.9195629358291626, -1.6324679851531982, -1.5774394273757935, -1.653569221496582, -3.669435501098633, -1.1482009887695312, -1.2120420932769775, -1.087226152420044, 0.03398682549595833, -0.9667525291442871, -2.3864316940307617, -5.394461154937744, -3.974470376968384, -3.943387985229492, -1.872697353363037, -2.2489378452301025, -3.070047378540039, -2.6166038513183594, 0.041063640266656876, -0.17867596447467804, 0.04031860828399658, -0.4439958930015564, -2.0061628818511963},{-0.29584455490112305, -0.8193948864936829, -2.87248158454895, -1.539932370185852, -0.8749297857284546, -2.5149002075195312, 0.04754602909088135, -1.0508854389190674, -1.2800981998443604, 0.5775898098945618, 1.4840211868286133, -1.6102439165115356, -0.4729122221469879, -1.1088292598724365, -0.6484615206718445, 2.2115728855133057, 0.8962757587432861, -2.831239938735962, 0.7721693515777588, 0.11464928090572357, -0.418297678232193, 0.8408087491989136, 0.6280733346939087, -2.5818991661071777, -2.2435734272003174, 0.3148561120033264, -1.9778938293457031, -2.364531993865967, -0.2835308611392975, 0.3336945176124573, 0.23595203459262848, 0.4478417932987213, 0.41788336634635925, -0.5874704122543335, -1.0793249607086182, -1.0515767335891724, 0.9811721444129944, 0.6133154630661011, -1.4485745429992676, -2.730987548828125, 2.1358985900878906, 0.21450698375701904, 0.26978152990341187, -0.4409348964691162, -0.9202384948730469, -0.45934411883354187, -1.0062828063964844, -0.5017102360725403, 0.6845433712005615, 1.3070659637451172, 1.3648639917373657, -1.917401671409607, 1.7064485549926758, 0.8320304751396179, 0.7896380424499512, 0.054833441972732544, -0.8735916018486023, -1.159910798072815, -1.2465763092041016, -0.25119248032569885, 0.7573893070220947, -1.438848853111267, 0.3940754532814026, -0.053592585027217865},{-4.6920552253723145, 1.2388339042663574, -0.3866880238056183, 0.003148870076984167, 0.1312970519065857, -0.05110568180680275, 0.5022861361503601, 0.44791582226753235, -0.3365277051925659, 0.22136083245277405, 0.9173582196235657, 0.08306202292442322, 0.3635079562664032, 0.5742495656013489, -0.039533231407403946, -0.016603048890829086, -0.23769532144069672, 0.25182950496673584, 0.18177467584609985, -0.11441914737224579, -0.2887767553329468, 0.27779561281204224, 0.45711442828178406, -0.5478498935699463, 0.38361576199531555, 1.7565388679504395, 1.0791248083114624, -0.49578627943992615, -0.5843265652656555, -0.1653957962989807, -0.7322027087211609, 0.5374384522438049, 0.2730998396873474, 0.8409818410873413, 0.36783817410469055, -0.6634884476661682, -1.1089693307876587, -0.4177364408969879, -0.5535055994987488, -1.9937936067581177, -1.3074740171432495, -0.2589785158634186, -0.23389752209186554, -0.65616375207901, 0.3085830509662628, 0.40682876110076904, -0.811397135257721, 0.10193900763988495, -0.032284945249557495, 0.1888059824705124, 0.12863457202911377, -0.9876489043235779, -0.6897193789482117, -0.6120044589042664, -0.9020261764526367, -0.4417218863964081, 0.536666750907898, -0.0877455547451973, -0.977554440498352, -2.3054168224334717, -0.3822453022003174, -0.977327823638916, -1.5868741273880005, -2.768643617630005},{0.6427414417266846, 1.180140733718872, -0.05256287753582001, -1.0276085138320923, 1.5665711164474487, 0.313650518655777, 0.4974904954433441, 2.2051806449890137, 0.16077013313770294, 0.06479661166667938, 0.8295368552207947, 2.557623863220215, -1.1907988786697388, 0.3324742913246155, -4.027090072631836, -4.276000499725342, -3.1053643226623535, -2.128481864929199, -4.010292053222656, 2.2116165161132812, -1.3618351221084595, -1.8496900796890259, 0.7058213353157043, 0.9330489039421082, 0.07251901179552078, -2.248434543609619, -5.973311901092529, -2.7720351219177246, -5.500255584716797, -0.7593792080879211, -1.4039671421051025, -0.1026681512594223, -1.4533582925796509, -4.008478164672852, -1.724002480506897, -2.013108015060425, -2.052363872528076, 1.7011741399765015, 0.45814475417137146, -1.0227923393249512, -2.5727646350860596, -0.41850778460502625, -1.57892644405365, 1.6345890760421753, 2.526102304458618, 0.38576334714889526, 1.072632074356079, 1.5284050703048706, 0.17351724207401276, -0.5588060021400452, -1.006822109222412, -0.10386285185813904, 0.2572086751461029, -0.2426724135875702, -0.2845037579536438, 1.1407668590545654, 0.34241148829460144, 0.5042552947998047, -0.22289209067821503, 1.6837999820709229, -1.423884391784668, -2.0636096000671387, 1.9327359199523926, 1.4327317476272583},{-1.536620855331421, -2.532867670059204, 1.0704624652862549, 2.0994069576263428, 1.0677567720413208, 2.787264823913574, -2.186549425125122, -2.344599485397339, -1.26823890209198, -3.078805923461914, -1.3638362884521484, 0.29966220259666443, 0.499634712934494, -0.3733401298522949, 0.18096967041492462, -3.3648998737335205, -0.7881923913955688, 2.7408127784729004, -3.4890949726104736, -3.2388815879821777, -3.063359260559082, -2.1895198822021484, 0.09902563691139221, 1.1380752325057983, -0.675865650177002, 0.7458321452140808, 3.0261166095733643, -2.0072836875915527, -3.693681240081787, 0.6854593753814697, -4.243275165557861, -6.156399726867676, -0.2650127708911896, 1.0298010110855103, -0.14529365301132202, -0.2816549837589264, -0.5525665879249573, -0.9387811422348022, -0.15255843102931976, -1.0550999641418457, -0.8673830628395081, 0.3950379192829132, 0.19586385786533356, -2.107942819595337, 2.518076181411743, 0.5912944674491882, -1.2322030067443848, -0.33445003628730774, -0.779460608959198, -1.4046019315719604, -0.43386557698249817, 0.457615464925766, -0.47758835554122925, 3.28253173828125, 0.10398322343826294, -0.9493210911750793, 0.8295978903770447, 1.7426406145095825, -0.8238608837127686, -1.6624377965927124, 0.46237534284591675, -0.6741318702697754, 1.6011654138565063, 0.303209125995636},{0.693888247013092, 0.7164987921714783, 1.343317985534668, -0.21025484800338745, -4.9275736808776855, -4.217006206512451, -9.309319496154785, -7.972094535827637, 0.7040804624557495, -0.4560320973396301, 0.4488263726234436, 0.13834667205810547, -1.1380741596221924, 1.7393842935562134, 2.8173999786376953, 0.32521572709083557, -2.304626703262329, -2.3670694828033447, -4.335007190704346, -2.371354341506958, 0.6429747343063354, 0.2551179528236389, 0.24122099578380585, -0.549431562423706, -3.7452142238616943, 0.41726335883140564, -0.6797341108322144, -1.294650673866272, -1.8663692474365234, -1.9618779420852661, -2.0033082962036133, -0.06372945010662079, 0.18011753261089325, 0.8304809927940369, -0.9681886434555054, -0.35360005497932434, -0.701551616191864, 0.7320180535316467, 1.0857090950012207, 0.9112755656242371, 0.790235698223114, 0.31255385279655457, -0.6920117139816284, -0.07106145471334457, 0.7828271389007568, 0.5438833236694336, -0.3097742199897766, 0.1679709255695343, 0.22147205471992493, -0.5261353254318237, -0.4350188672542572, 0.14891007542610168, 0.03361994028091431, -0.4570966958999634, 0.7329742908477783, 0.1454429030418396, 0.7605600953102112, 0.22988829016685486, -0.3092069923877716, -0.06745155155658722, -1.1431719064712524, 0.5227859020233154, 0.23428428173065186, 0.8733124136924744},{-7.108445167541504, 0.8255108594894409, 0.045795537531375885, 1.053016185760498, 0.17743176221847534, -0.1713780164718628, -0.22612500190734863, -0.03802649304270744, -0.10427752882242203, 0.43169379234313965, 0.133611798286438, -0.07675687968730927, 0.6311996579170227, 0.5377501845359802, -0.0181655902415514, 0.4173358380794525, 0.07247840613126755, 0.33401498198509216, 0.5105994343757629, -0.0919257253408432, -0.0954439714550972, 0.19354932010173798, 0.17870044708251953, -0.45499706268310547, 0.42121922969818115, 0.6414676904678345, -0.3345928192138672, -0.0566912442445755, -0.3991808295249939, -0.1158352717757225, -0.7056900262832642, -0.03229539468884468, -0.06770431995391846, 0.3651539981365204, -0.09731133282184601, 0.10174765437841415, 0.24771031737327576, 0.2165224552154541, -0.1364145576953888, -0.026989640668034554, -0.48396265506744385, -0.44834473729133606, -0.34601864218711853, -0.280733585357666, 0.24943123757839203, 0.29918166995048523, -0.18696428835391998, 0.27132123708724976, -0.24454368650913239, 0.1816517859697342, -0.2036541849374771, -0.4952618181705475, 7.693224324611947e-05, -1.0294026136398315, 0.45893749594688416, -0.6828546524047852, -0.4340061843395233, -0.21889880299568176, -0.1622869223356247, -0.03895214572548866, -0.19457615911960602, -0.41730839014053345, -0.7512054443359375, -7.4682841300964355},{1.1274970769882202, -2.0797460079193115, -1.455942988395691, -1.110803484916687, -1.4417219161987305, -2.161003351211548, -1.035265326499939, -1.4356781244277954, -4.252741813659668, -2.6360507011413574, -3.4812631607055664, -0.3057035803794861, -0.4427824914455414, -1.1883790493011475, -2.4608871936798096, -1.0620819330215454, -0.5484397411346436, 0.8669116497039795, 0.3162997364997864, 0.7637402415275574, 0.3070831596851349, -0.2287946343421936, -0.6675691604614258, 0.7909701466560364, 1.5562058687210083, -0.1468840390443802, -0.16525939106941223, -0.43089044094085693, -0.2603180408477783, 0.276416152715683, -0.187064066529274, 0.560842752456665, 0.33641812205314636, -0.4083898663520813, 0.5031924247741699, -0.08412928134202957, 0.5520268082618713, 1.0009952783584595, 1.1872379779815674, -4.343360900878906, -1.76386559009552, -0.4797438979148865, 0.3518444299697876, 0.4798336923122406, -0.26713281869888306, -0.11151617020368576, 0.6323072910308838, 0.6908568739891052, 0.5766397714614868, 1.1070058345794678, -0.05696374177932739, -2.667534589767456, -1.048429012298584, -0.6228509545326233, -0.8654857873916626, 1.2501304149627686, -0.277802050113678, 0.14012770354747772, 0.8099875450134277, 0.2442304641008377, -0.4665130078792572, -1.4404830932617188, -2.621666193008423, 1.3637644052505493},{1.0852988958358765, 1.8340898752212524, 0.938808023929596, 0.7649300694465637, 1.6929078102111816, 0.7054339647293091, -5.591963291168213, -2.1838948726654053, -6.803078651428223, -1.5697506666183472, 1.0884807109832764, 2.173351287841797, 2.284501314163208, 1.018614649772644, -0.13753049075603485, 1.4969522953033447, -1.4614455699920654, -0.8182897567749023, -2.736179828643799, -0.5269051194190979, -1.9704009294509888, -2.441681385040283, -3.0957014560699463, 0.20889951288700104, -0.5045783519744873, 0.6079026460647583, 0.7360338568687439, 3.4466917514801025, -0.9417898058891296, -2.4193575382232666, -4.756316661834717, -1.3265626430511475, 1.1875139474868774, 0.4671070873737335, -0.4248291850090027, -0.5151399374008179, -0.7584314942359924, -1.1118730306625366, 0.6097167730331421, 1.0983041524887085, 0.8843024969100952, 0.46549108624458313, -4.7662577629089355, -2.5074334144592285, -0.09899570792913437, 0.91585773229599, -0.020065171644091606, -1.1609630584716797, -1.0268101692199707, -1.2677472829818726, 0.25110068917274475, 1.6988425254821777, -0.7906266450881958, -2.2303457260131836, -2.301286220550537, -1.2104308605194092, -3.050941228866577, -0.7154561281204224, 1.1967840194702148, -0.8978882431983948, -1.071405291557312, -0.8267728686332703, 0.8687827587127686, 0.6448407769203186},{0.9803224802017212, -0.40754076838493347, -0.16034221649169922, -0.5066225528717041, -0.9124221205711365, -0.4837663471698761, 0.34366878867149353, 1.8093204498291016, 0.5186892151832581, 2.9638731479644775, -3.280973196029663, -3.2363359928131104, -2.8352091312408447, -3.1212069988250732, -0.8049020767211914, -0.2131602168083191, -1.3204292058944702, -2.828842878341675, -2.8939716815948486, -4.980334758758545, 1.6819276809692383, 1.716459035873413, -1.5453075170516968, -2.9901700019836426, -2.6656341552734375, -2.398615837097168, 0.3716369569301605, 1.1095716953277588, 0.4564312696456909, -0.027358565479516983, -1.661614179611206, -4.234827518463135, -5.093763828277588, 2.4446051120758057, 1.4887088537216187, -0.1752924770116806, -0.11055921763181686, -0.713756263256073, -0.1128317341208458, -0.07698781043291092, -0.911514937877655, -0.221157044172287, 1.5839840173721313, -4.134411334991455, -3.574652910232544, 2.8275647163391113, 1.8333784341812134, -0.07114030420780182, -0.18264907598495483, -0.6548188924789429, -0.36076414585113525, 0.9393925070762634, 0.902423620223999, 0.9262245297431946, 0.6235236525535583, -3.934314489364624, -2.308255434036255, -0.7822471261024475, 0.2464323341846466, 0.21477344632148743, -2.0935888290405273, -1.0505982637405396, 0.5001654624938965, 1.409057378768921},{-3.2807657718658447, 0.2821230888366699, -0.035705335438251495, 0.5090904235839844, 0.2781280279159546, 0.0955304503440857, 0.08330231159925461, 0.014060319401323795, -0.4714721739292145, 0.24208945035934448, 0.324526846408844, -0.06665553897619247, 0.7971285581588745, 0.5744333863258362, 0.17291636765003204, 0.4082282781600952, 0.12040859460830688, 0.8001787662506104, 0.6936911344528198, 0.37406057119369507, -0.5264012217521667, -0.7991417050361633, 0.08290629833936691, -0.480977326631546, 0.4046703577041626, 0.7712134122848511, 0.19711707532405853, -0.07072432339191437, 0.16661468148231506, 1.4365638494491577, 1.8411762714385986, -0.6598162651062012, -2.476726770401001, -3.2025535106658936, -1.9166783094406128, -1.428171157836914, -2.8185107707977295, -0.34681493043899536, -0.3389468789100647, -0.4257230758666992, -0.253558874130249, 0.5168408155441284, 0.7473933696746826, 1.2593055963516235, -2.0051820278167725, -2.969431161880493, -2.1218881607055664, -2.9628396034240723, -1.8696545362472534, 0.7620284557342529, 0.22020117938518524, -0.5227717161178589, -0.01613747328519821, -0.0969066247344017, 0.694600522518158, 0.4907740354537964, -0.644515872001648, -1.405779480934143, -0.2064722776412964, -0.3332592844963074, -0.8488445281982422, 1.046249508857727, -0.1446623057126999, -3.1395435333251953},{-5.974151611328125, 0.5127285718917847, -0.12753801047801971, 0.6096929907798767, 0.29712629318237305, 0.10334262251853943, -0.20870207250118256, -0.07788360863924026, -0.20203785598278046, 0.277981698513031, 0.4228234887123108, -0.08685342967510223, 0.7463511824607849, 0.3798538148403168, -0.35648661851882935, 0.3424902856349945, 0.19980306923389435, 0.22881703078746796, 0.14963066577911377, 0.10397005826234818, 0.05176210775971413, 0.046716466546058655, -0.13078314065933228, -0.2603752911090851, 0.08416476845741272, 0.13924545049667358, -0.2727551758289337, -0.39187905192375183, -0.3386268615722656, -0.13687488436698914, -0.48436030745506287, 0.2313709259033203, 0.11660986393690109, 0.5341885685920715, -0.14477621018886566, -0.20767664909362793, -0.027599796652793884, 0.15370997786521912, -0.17608091235160828, 0.018495088443160057, -0.08702640235424042, -0.03204933553934097, -0.09128930419683456, -0.5679417848587036, 0.320343017578125, 0.4454563856124878, -0.16478531062602997, 0.012442166917026043, -0.1574842631816864, 0.09443514049053192, -0.41284266114234924, -0.4989897310733795, -0.3359549343585968, -1.0617997646331787, 0.2168974131345749, -0.4846082925796509, 0.0990457758307457, 0.039153702557086945, -0.37530791759490967, 0.2304142564535141, 0.02863793447613716, -0.027983620762825012, -1.1996930837631226, -6.206624984741211},{1.4630528688430786, -0.05001024529337883, 0.817350447177887, 0.9431920647621155, 0.4070304036140442, -0.44008323550224304, -3.3495259284973145, -3.0166499614715576, -3.3066976070404053, -4.790500640869141, -0.3141813576221466, -0.43387845158576965, 0.8887106776237488, 0.6073490381240845, 0.8665706515312195, -0.14167813956737518, 0.22492723166942596, 0.6124284863471985, 0.5074726343154907, 0.3312629461288452, -1.0074800252914429, -2.6721351146698, -3.8944168090820312, -1.7830747365951538, 0.025732826441526413, -2.4989676475524902, -0.9063595533370972, -0.7402265667915344, 0.2881380617618561, -0.6786535978317261, -0.9285642504692078, 0.11334827542304993, -0.04907078668475151, -0.10738173872232437, -4.09255838394165, -4.3087053298950195, -3.427440881729126, 2.807856559753418, 4.42706823348999, 2.2734930515289307, 1.9148364067077637, -1.2189520597457886, -1.0012844800949097, 0.14760750532150269, 1.3445199728012085, 2.7692818641662598, 0.25221022963523865, -1.7604649066925049, -0.5915931463241577, 1.306458830833435, 2.8520700931549072, -0.19224217534065247, -0.36211344599723816, -2.2544450759887695, 0.19215871393680573, 1.2944667339324951, 0.14250385761260986, 2.253615617752075, -2.6984739303588867, -2.259443998336792, -0.003953458741307259, 0.600740373134613, 1.0780025720596313, 2.492076873779297},{0.7425931096076965, -1.6344778537750244, 0.16906073689460754, -0.6539744138717651, -0.32338976860046387, -0.010714312084019184, 2.1215672492980957, -2.930006742477417, -0.6927156448364258, -4.021371841430664, -0.03871089220046997, -3.115556001663208, -4.1525068283081055, -3.4509923458099365, 0.28353190422058105, -0.5830003023147583, 1.5915945768356323, -0.5043006539344788, -2.279791831970215, -2.429715633392334, -3.009096145629883, 1.2974251508712769, 0.3834734559059143, -1.8536958694458008, -2.5874810218811035, -1.5646238327026367, 0.5011084079742432, 0.5062428712844849, 1.742701768875122, 1.1317615509033203, -3.81966233253479, -6.422829627990723, -0.9006891250610352, 0.8237745761871338, 2.0770204067230225, 0.2882312536239624, -0.3982737064361572, -0.8203189373016357, -0.02788298763334751, -0.4629764258861542, 0.4737294018268585, 1.5971068143844604, -3.782792806625366, -2.8378448486328125, -2.704263925552368, 1.617624282836914, 1.1117395162582397, -0.36112162470817566, -0.41314685344696045, -1.0296434164047241, -0.2240995466709137, 0.8762614130973816, 1.7117955684661865, 2.672698974609375, -2.610198497772217, -1.3377964496612549, -1.744560718536377, 2.8374290466308594, 0.6980613470077515, -0.3827061951160431, -0.08724752068519592, 0.1508081555366516, 0.34800443053245544, 1.2640961408615112},{1.701265573501587, -0.9979382753372192, -0.3711523115634918, -1.2904162406921387, -0.5583938956260681, -0.438552588224411, 0.28307870030403137, -0.1244557574391365, 0.47012773156166077, 0.9104828834533691, -1.9722919464111328, -3.3096251487731934, -1.2606173753738403, 0.5126949548721313, -0.31410375237464905, 0.7827174067497253, 2.0509371757507324, -1.8795788288116455, -1.1207044124603271, 1.053432583808899, -2.2306153774261475, -1.484687089920044, -1.1190388202667236, -1.1806339025497437, -0.4279789626598358, 1.7351661920547485, 0.3141472041606903, 0.7895704507827759, 1.7350324392318726, -5.289668560028076, -1.7843573093414307, 1.3775784969329834, -1.8043403625488281, -3.68215012550354, -3.184558868408203, 2.2405765056610107, 0.9408405423164368, -1.1262695789337158, -0.4629024863243103, -0.6408980488777161, 0.2798967659473419, -3.2555994987487793, -4.4471116065979, -0.26750463247299194, -0.38955411314964294, -4.071778297424316, -5.381497859954834, 3.013155221939087, 0.597119927406311, -0.7552940249443054, 0.4372376501560211, 0.23160359263420105, 1.3174785375595093, -0.5507712960243225, -1.8649080991744995, -0.7552947998046875, 1.0054094791412354, -2.9278621673583984, -0.5776447057723999, 1.5292502641677856, 0.804426372051239, -0.2466336041688919, 0.6537460684776306, 2.0110092163085938},{-4.541874408721924, 0.8444209098815918, 0.14127320051193237, 1.0391037464141846, 0.7452858686447144, -0.0562446154654026, -0.024199888110160828, 0.19853876531124115, -0.48268768191337585, 0.030112285166978836, 0.6284220814704895, 0.035349465906620026, 0.8569505214691162, 0.31045296788215637, -0.09262727200984955, 0.19921234250068665, 0.13248364627361298, 0.6092469692230225, 0.3107583522796631, 0.22304247319698334, -0.33040136098861694, -0.14731544256210327, -0.15648476779460907, -0.1851150393486023, 0.6610482335090637, 0.4017861485481262, -0.0708395466208458, 0.1650288701057434, 0.06968063861131668, 0.7521553039550781, 0.40273165702819824, 1.2315400838851929, -0.37996625900268555, -0.20991261303424835, -0.1810828596353531, 0.15406689047813416, -0.39546626806259155, -0.002145561156794429, -0.18900111317634583, -0.8950939178466797, 0.037846680730581284, 0.045427583158016205, 0.4248940050601959, 0.7537487745285034, -1.4039548635482788, -0.8301423192024231, -0.7296298742294312, 0.03759598359465599, -0.4680330157279968, 0.9981439709663391, -0.030530720949172974, -0.3483940660953522, 0.09144564718008041, -0.4578262269496918, -0.24800384044647217, -1.4230040311813354, -2.509092330932617, -2.668609857559204, -1.4243905544281006, -3.454582691192627, -2.314157724380493, -0.2958732843399048, -2.8385863304138184, -2.786735773086548},{0.5165139436721802, -2.631999969482422, 2.3043878078460693, -0.10037320852279663, -3.522740125656128, -2.317548990249634, -4.6049909591674805, -2.0614964962005615, -4.468489646911621, 0.00469434168189764, 0.003253102768212557, -0.42314082384109497, 0.5588547587394714, 1.9008607864379883, 3.2435953617095947, -1.3117125034332275, -0.4564696252346039, -0.6262399554252625, -3.541740655899048, -3.956721067428589, -4.394420146942139, 1.3578368425369263, 0.16169580817222595, -2.270414352416992, 0.40493103861808777, 0.25373268127441406, 1.525762677192688, 1.5762015581130981, 1.6362357139587402, 1.6381747722625732, 2.5086348056793213, -0.6291733384132385, -1.5861256122589111, -0.08200886100530624, -0.7845749855041504, -1.9335401058197021, -1.289890170097351, -0.4553602635860443, 2.0980982780456543, 1.7161380052566528, 2.052539348602295, 0.9868988990783691, 0.9227716326713562, 0.09479202330112457, -0.20806056261062622, -0.9111422300338745, -0.27788835763931274, -0.9611321091651917, -1.3762379884719849, -1.1599385738372803, 1.7315936088562012, 2.431384325027466, -3.2468786239624023, -1.3009545803070068, -1.6229362487792969, -0.6906921863555908, -4.379491806030273, -3.9093563556671143, -0.7260305285453796, -0.9620986580848694, -3.580099582672119, -1.2873173952102661, -1.473870038986206, 0.5387872457504272},{-1.452260136604309, 1.899999976158142, 1.5631436109542847, -3.2458901405334473, -1.1634420156478882, -1.3082958459854126, 0.7556076645851135, 2.9353084564208984, 1.8641563653945923, -0.4749818444252014, -3.254622459411621, -1.6222866773605347, 0.5292530655860901, 2.267385721206665, 0.7869073152542114, -0.9223922491073608, -0.3194960355758667, -1.9814338684082031, -2.4008097648620605, -2.7818703651428223, -2.2701478004455566, -3.4590930938720703, -3.1050310134887695, -2.0218706130981445, 1.7123750448226929, 2.62454891204834, 2.316039562225342, -0.27359113097190857, 0.30655696988105774, 1.005634069442749, 1.7084697484970093, -0.48432034254074097, -1.7775495052337646, -2.4720242023468018, -2.6464476585388184, -1.8398489952087402, -0.24309305846691132, 2.961664915084839, -1.6012383699417114, -2.943957567214966, -2.5569698810577393, 1.2364866733551025, 1.1878784894943237, 1.4329214096069336, -0.24259036779403687, -1.1098369359970093, -0.8167291879653931, -0.8100594282150269, 0.6884239315986633, 4.1267313957214355, -5.3981852531433105, -1.5948604345321655, -0.9646109342575073, -1.638353943824768, -2.484450101852417, 0.4564845860004425, 1.0086561441421509, -1.0232237577438354, 1.286741018295288, -0.5742854475975037, 1.5955054759979248, -0.34119322896003723, -0.9831829071044922, 0.7891676425933838},{-0.7617580890655518, -0.4452555775642395, -4.075735092163086, -4.353967666625977, 0.01724422350525856, 1.1646983623504639, 1.396687388420105, 0.7407419681549072, 0.15697234869003296, 0.5639175772666931, -0.1992495059967041, -0.02984447032213211, -0.17908520996570587, 0.5597985982894897, -1.0220530033111572, -0.3704630136489868, 0.27158552408218384, 1.2646665573120117, -0.025821704417467117, -0.20427075028419495, -0.10332125425338745, -0.2944733202457428, 0.5272018313407898, 0.025800742208957672, -1.4840654134750366, -0.06866224855184555, -0.7450459003448486, 0.03885190561413765, 0.19240984320640564, 0.6685763597488403, -0.4796421527862549, 0.08479875326156616, 0.44683006405830383, -2.1232664585113525, -3.5840542316436768, -3.671279191970825, 0.6707351803779602, -2.996309757232666, -5.8129448890686035, -1.6706855297088623, -0.049777545034885406, 0.5223549604415894, -0.6955681443214417, -1.3961166143417358, -0.22904831171035767, 0.7599577307701111, -2.7769734859466553, -2.0942227840423584, -0.4846610426902771, -4.041403293609619, -5.246172904968262, 0.5199180841445923, 2.138164758682251, 1.1573160886764526, -0.11909264326095581, -0.13624368607997894, 1.140560269355774, 1.957510232925415, 0.9731374382972717, -1.4254577159881592, -1.3986144065856934, -1.484588861465454, -1.208316445350647, 0.4277382791042328},{2.793060779571533, 0.24063554406166077, -0.09542237967252731, -0.14693529903888702, 1.0462238788604736, -0.46451112627983093, -0.5072339773178101, 0.7678027749061584, -0.1751348078250885, -0.40485045313835144, 0.17653803527355194, 0.43913713097572327, -1.5465209484100342, -0.46068456768989563, 0.7043759226799011, -2.0413944721221924, -0.6757818460464478, -1.3163940906524658, -1.1597615480422974, -4.991862773895264, 0.01385679841041565, 0.8205727338790894, -1.5750010013580322, 0.989396870136261, -2.6242966651916504, -1.5524808168411255, 0.1685381978750229, -1.0871230363845825, 0.21611416339874268, -4.45731258392334, -2.6126582622528076, -1.9025343656539917, 2.467921733856201, 5.168832778930664, 2.890745162963867, 1.559194564819336, -0.6756676435470581, -4.799187183380127, 0.8400216698646545, -0.14301630854606628, 0.9624131321907043, -1.756445288658142, -0.7647744417190552, -0.9913322925567627, 0.4347507655620575, 1.3297176361083984, 0.2109118551015854, -0.9985169768333435, -1.4970338344573975, 0.3672070801258087, 0.2503531575202942, -0.048809003084897995, -0.6420686841011047, -0.44427937269210815, -0.42289552092552185, 0.4610567092895508, -0.29764029383659363, -0.33890536427497864, 0.6801285743713379, 0.34776610136032104, -1.2357572317123413, -0.18364058434963226, -0.31016120314598083, 3.9735593795776367},{2.358839750289917, -0.7753418684005737, -0.30085861682891846, -0.5240325927734375, 0.6158396601676941, 0.8375344276428223, -1.3705453872680664, -2.7515783309936523, -1.923074722290039, -0.04362127557396889, -2.737484931945801, -4.416263103485107, -1.2041103839874268, 0.4413371682167053, 0.15845049917697906, 1.1870355606079102, 1.6483217477798462, -2.4433372020721436, 0.4476870596408844, 0.9439927935600281, -1.1672873497009277, -2.2319979667663574, -11.393789291381836, -4.63251256942749, -0.968023419380188, -1.9671211242675781, 1.4897370338439941, 2.9998717308044434, 0.6525309085845947, 1.9677863121032715, 1.8983533382415771, 1.3388869762420654, -0.7554454803466797, -0.18154896795749664, -6.483097553253174, -5.767645359039307, -2.3625752925872803, 1.1243705749511719, 0.24382495880126953, 0.5588197708129883, -1.639236330986023, -0.8203760981559753, 0.786349892616272, 0.9697966575622559, 1.9391034841537476, 0.7635581493377686, -4.353249549865723, -4.118150234222412, 1.9234994649887085, 2.055394411087036, 1.5325636863708496, 0.3964118957519531, 0.0642169788479805, -1.3749213218688965, 0.8645179867744446, -0.0825377032160759, 0.7448372840881348, -1.684531807899475, -2.3581159114837646, 0.2849622964859009, 2.1588659286499023, 0.21820712089538574, 1.370463490486145, 3.4391727447509766},{-4.053834915161133, -0.34237590432167053, -1.1176456212997437, 0.4604339599609375, 1.2545746564865112, -0.7367448210716248, 1.2416483163833618, 0.75584477186203, 0.17280688881874084, -0.4524720013141632, 0.8726111650466919, 0.2855420410633087, 1.4049049615859985, -0.6285718679428101, -0.5077587366104126, 0.34811124205589294, -0.04768330976366997, 0.3449661433696747, 0.18980516493320465, 1.1161551475524902, -0.3573574721813202, -0.3384231925010681, 0.1887872964143753, 1.1132397651672363, 0.80012446641922, -0.21080274879932404, -0.9386522769927979, -0.7254630923271179, -0.7347009181976318, -0.28307220339775085, -0.17889228463172913, 0.23587004840373993, -0.4851364493370056, 0.061180420219898224, 0.8477328419685364, 0.9969533085823059, 1.1261662244796753, 0.37093883752822876, -0.22132372856140137, 0.7669135332107544, 0.2822161316871643, -0.638306736946106, -0.39425522089004517, -0.2742549479007721, 0.45688140392303467, -0.5473970174789429, 0.3040042817592621, -1.3071229457855225, -2.0290844440460205, -1.337424874305725, -2.2137463092803955, -1.066846251487732, 0.12177973240613937, -0.8404597043991089, -2.135915756225586, -2.326502799987793, -1.3732582330703735, -2.4833362102508545, -1.7208373546600342, -4.574117183685303, -3.3096821308135986, -2.4974517822265625, -0.6732838749885559, -3.982234239578247},{1.3507837057113647, -1.052341103553772, -0.6757704019546509, -0.008712949231266975, -0.5354877710342407, -0.8690918684005737, 0.49528175592422485, 0.741966962814331, -0.47941869497299194, 1.1986619234085083, 0.0591212697327137, -2.0398614406585693, 0.35590818524360657, -1.4322484731674194, 1.1524937152862549, 1.4992108345031738, -0.10648385435342789, -0.1281873732805252, 1.6706926822662354, -3.4136149883270264, -1.0564244985580444, -0.132277250289917, 0.6302658319473267, -0.34610968828201294, 1.475801944732666, -1.050746202468872, -1.3331234455108643, -2.214122772216797, -2.7071805000305176, -2.8011622428894043, 0.5195297598838806, 1.1105319261550903, 1.4665888547897339, -1.113201379776001, -5.027611255645752, 0.12777256965637207, 1.9367599487304688, 0.4944712817668915, -1.598332405090332, -1.0671645402908325, -1.8646998405456543, -1.1320481300354004, 0.4897546172142029, -1.533233880996704, -1.2559353113174438, -4.1338791847229, 1.2108325958251953, 2.0987658500671387, 1.0977727174758911, -0.5974780917167664, -0.7122579216957092, 0.2854185104370117, 